<?xml version="1.0"?>
<opencv_storage>
<opencv_ml_svm>
  <format>3</format>
  <svmType>C_SVC</svmType>
  <kernel>
    <type>RBF</type>
    <gamma>5.0625000000000009e-01</gamma></kernel>
  <C>1.2500000000000000e+01</C>
  <term_criteria><epsilon>1.1920928955078125e-07</epsilon>
    <iterations>1000</iterations></term_criteria>
  <var_count>141</var_count>
  <class_count>7</class_count>
  <class_labels type_id="opencv-matrix">
    <rows>7</rows>
    <cols>1</cols>
    <dt>i</dt>
    <data>
      0 1 2 3 4 5 6</data></class_labels>
  <sv_total>1606</sv_total>
  <support_vectors>
    <_>
      -2.48784125e-01 -6.54351488e-02 -1.96916461e-01 -1.33523867e-02
      1.37703940e-01 4.70028855e-02 -4.81625833e-02 2.52647605e-03
      1.12578981e-01 1.22798346e-01 1.24223337e-01 1.00739650e-01
      -1.69593588e-01 1.61269829e-02 4.96377014e-02 1.06899872e-01
      7.73348808e-02 -8.70146230e-02 -9.32722315e-02 5.08084446e-02
      1.03681423e-01 8.92616734e-02 -5.11007458e-02 9.23420638e-02
      -7.23532215e-03 6.40488043e-02 5.26421815e-02 1.66490689e-01
      -4.36645783e-02 -1.88317113e-02 7.62959123e-02 1.45278603e-01
      1.46299034e-01 5.15845641e-02 1.39047503e-01 -8.35338682e-02
      -7.87653178e-02 -1.06282912e-01 -9.15275961e-02 -1.84515249e-02
      -3.43821086e-02 -5.92626035e-02 -6.71445802e-02 1.14803977e-01
      1.37042940e-01 8.96478295e-02 -4.94250283e-02 9.24093947e-02
      4.73383740e-02 -1.79383606e-02 6.14631660e-02 8.05086866e-02
      -5.73105961e-02 -1.02998707e-02 6.11286722e-02 1.28558159e-01
      -2.65968451e-03 -4.38142642e-02 -5.34296297e-02 -7.29018152e-02
      -4.34065051e-02 3.61146145e-02 1.05804324e-01 7.67913461e-02
      8.00905451e-02 1.31589055e-01 9.73342210e-02 -4.02390398e-02
      2.20567305e-02 -1.53472675e-02 7.86313787e-02 6.73291907e-02
      1.12482563e-01 7.86691457e-02 5.65885715e-02 8.98848847e-02
      3.52689885e-02 1.65623799e-02 -2.82418672e-02 1.53478757e-02
      -7.67484754e-02 3.28947455e-02 -2.51239222e-02 -2.14688554e-02
      3.68029773e-02 1.23514188e-02 4.89578536e-03 -3.06975376e-02
      7.35347439e-03 4.13303338e-02 6.26791790e-02 -5.60673550e-02
      1.58780802e-03 1.29091972e-02 -1.25492051e-01 -2.72582695e-02
      -2.70775761e-02 1.61643494e-02 -4.42988202e-02 -4.78729196e-02
      -2.10379399e-02 7.06684776e-03 -6.76506609e-02 -3.89043875e-02
      -1.82131231e-02 -3.18887345e-02 -8.84076133e-02 1.87365543e-02
      -4.14493084e-02 -4.77611609e-02 6.07661018e-03 -2.69160569e-02
      -8.42305943e-02 6.10893890e-02 1.70013793e-02 -1.11591987e-01
      -1.61151960e-02 4.32961844e-02 -8.96542072e-02 4.65084054e-02
      3.11263651e-02 7.22323954e-02 1.28039718e-02 -3.81332710e-02
      -1.59947142e-01 -1.22018605e-01 3.14931199e-02 -4.82462123e-02
      1.63350850e-02 2.35751085e-02 4.98162471e-02 2.54469402e-02
      -7.75695685e-03 -3.48527543e-02 4.97879125e-02 -1.25881461e-02
      -8.18978846e-02 -7.26006273e-03 7.85874054e-02 2.03726608e-02
      -5.25784381e-02</_>
    <_>
      -4.15358432e-02 1.73245028e-01 6.99745342e-02 -2.24222004e-01
      -4.22106078e-03 -4.78033461e-02 -1.16622075e-02 -2.49809343e-02
      -8.58502015e-02 1.43626660e-01 -1.30720111e-02 -5.93295321e-02
      7.58683402e-03 6.00649677e-02 1.00596882e-01 3.27587803e-03
      -5.16255014e-03 1.15923412e-01 1.09109603e-01 1.27456695e-01
      7.03596175e-02 -1.41923532e-01 -1.18023068e-01 1.29234180e-01
      1.22178942e-01 -6.63122460e-02 -3.78861539e-02 3.52569595e-02
      -2.04946231e-02 1.27284825e-01 1.06077030e-01 7.49209672e-02
      8.56712982e-02 3.52266952e-02 -1.32574551e-02 -1.07664214e-02
      -6.11948073e-02 2.18167575e-03 2.55068727e-02 3.30370478e-02
      -5.98964933e-03 8.41002970e-04 -7.40522370e-02 3.37093435e-02
      -8.23776424e-02 6.94795772e-02 -7.28056580e-02 4.93023954e-02
      -5.24541065e-02 1.53141078e-02 -4.20448445e-02 5.54866083e-02
      5.57780638e-02 1.05811954e-01 -6.59462810e-02 1.47626651e-02
      -5.82250841e-02 -6.99798856e-03 -9.25693847e-03 9.72199067e-02
      5.60541414e-02 7.25971609e-02 1.03347689e-01 -2.39992607e-02
      1.06757306e-01 1.81870367e-02 -1.77773461e-02 1.00117780e-01
      -1.65848762e-01 -9.78384018e-02 -4.79297750e-02 -5.53509630e-02
      1.22690853e-02 -1.34990916e-01 1.29439365e-02 1.91418137e-02
      -2.84964014e-02 4.86886501e-02 -2.29049884e-02 -2.85683665e-02
      -5.74117824e-02 -7.33852610e-02 1.16633564e-01 -4.91669178e-02
      -1.19460687e-01 -3.30431648e-02 2.29426613e-03 -1.16930522e-01
      9.78362784e-02 3.87562662e-02 6.85739145e-02 2.78335065e-02
      8.69924650e-02 -4.88323383e-02 -2.21299585e-02 -7.49217272e-02
      2.89769601e-02 -3.27105261e-02 -8.54616985e-02 -1.66323744e-02
      -1.45996511e-02 -3.48020531e-02 4.69215214e-03 -2.89066322e-02
      -3.42837833e-02 -1.87034160e-02 3.65278572e-02 -1.91936921e-02
      -6.18704855e-02 -9.22374800e-02 -5.63464649e-02 -6.04829900e-02
      1.09402305e-02 3.14727798e-02 -4.15459163e-02 6.81138970e-03
      -1.59626435e-02 -2.81960685e-02 -1.72801837e-02 1.30635519e-02
      9.71719772e-02 1.66627485e-02 -3.98173667e-02 -3.52830626e-02
      7.14037102e-03 1.02469290e-03 -8.64383671e-03 5.47575876e-02
      -5.04490780e-03 -7.48351961e-03 1.05664589e-01 -1.17932502e-02
      -6.06831759e-02 5.19892685e-02 -1.55753687e-01 -2.05729101e-02
      -6.67049140e-02 5.07677868e-02 -7.58454576e-02 6.55572116e-02
      9.96220391e-03</_>
    <_>
      -9.57376137e-02 3.39970328e-02 -1.92367300e-01 -2.26246864e-01
      8.07272121e-02 7.95284584e-02 2.37279519e-01 7.03784749e-02
      -1.71702147e-01 1.39463648e-01 -7.85999186e-03 2.50516653e-01
      2.23462060e-01 -1.06752060e-01 8.88591632e-02 -6.69423491e-02
      1.07931690e-02 1.87092766e-01 1.08319744e-01 1.08588614e-01
      -3.16656716e-02 -1.01838581e-01 -1.99503601e-02 1.50255412e-01
      1.33033335e-01 -1.47966787e-01 -4.46143560e-03 -1.20342724e-01
      7.34320581e-02 7.25648105e-02 -2.81657334e-02 3.97240482e-02
      1.64331459e-02 -1.10180795e-01 -3.77175771e-02 1.21507190e-01
      7.66438767e-02 -4.41445922e-03 3.53394412e-02 -3.32442783e-02
      9.43978727e-02 4.96349335e-02 -8.13709386e-03 2.49480791e-02
      3.10951918e-02 2.61328202e-02 -2.58711446e-02 1.57799848e-04
      -6.14668068e-04 3.79929808e-03 -1.06326424e-01 2.81908400e-02
      1.03202090e-02 1.34827197e-02 2.72795055e-02 -2.43466906e-02
      -3.64154987e-02 2.28897464e-02 6.26034364e-02 3.11222244e-02
      -4.14400175e-02 6.44509792e-02 4.65157293e-02 -7.33552501e-02
      8.90260860e-02 1.19411834e-01 -6.31012693e-02 2.77349371e-02
      -2.82335579e-02 -2.27840059e-02 -1.42294895e-02 -3.00739259e-02
      -3.24596167e-02 1.28672374e-02 -1.51665099e-02 6.36280179e-02
      -6.72974810e-02 -2.97721140e-02 1.05143026e-01 -6.77231476e-02
      -4.29355949e-02 -4.27092565e-03 3.43133695e-02 -1.14397936e-01
      -1.38554387e-02 -3.18723358e-02 -5.42667396e-02 -9.97497141e-02
      5.14234416e-02 6.70867711e-02 -2.39042677e-02 6.45423606e-02
      2.09892256e-04 1.86339172e-03 2.37783976e-02 -7.89976418e-02
      6.14414737e-02 2.09157658e-03 -8.15869421e-02 -1.71831790e-02
      6.14969118e-04 -5.50982244e-02 -1.79009903e-02 2.28759553e-02
      -2.72913091e-02 -4.78875116e-02 -1.90696437e-02 8.30259547e-02
      2.12566704e-02 -7.41691887e-02 1.75774414e-02 -2.21556760e-02
      6.34612590e-02 6.89750314e-02 -2.02973443e-03 -1.53362434e-02
      -3.66275311e-02 8.07429571e-03 -2.58373376e-03 7.46905282e-02
      9.46045741e-02 4.97991070e-02 -3.73329371e-02 1.63323488e-02
      1.09650986e-02 4.62361332e-03 -7.82686844e-02 -1.25435936e-05
      2.60964837e-02 -7.62775615e-02 6.57568052e-02 -2.63770893e-02
      -9.22888219e-02 -1.45773147e-03 -6.19240515e-02 -3.68467649e-03
      2.97857798e-04 1.72518790e-02 1.40739894e-02 -1.87848099e-02
      -1.28309405e-03</_>
    <_>
      -1.02088295e-01 8.76202248e-03 -7.43393898e-02 -1.58720270e-01
      -2.48306114e-02 1.13075636e-02 1.90136984e-01 9.21246484e-02
      -9.60051045e-02 7.67423809e-02 -1.03848325e-02 5.94963245e-02
      1.60865590e-01 6.07800819e-02 1.47545179e-02 -2.04225942e-01
      -3.04701999e-02 1.40476584e-01 7.88928419e-02 6.52864128e-02
      -6.97886050e-02 -5.27019128e-02 -1.01703241e-01 1.26396893e-02
      1.21414013e-01 -4.43096235e-02 8.97822436e-03 -3.02575994e-02
      -1.53245796e-02 9.52145457e-02 -1.24891847e-02 6.24172390e-03
      9.88445133e-02 -5.77576868e-02 -1.24972044e-02 1.91454753e-01
      -4.19269539e-02 4.98340428e-02 -3.49851027e-02 1.89714804e-02
      5.81395850e-02 1.23927630e-02 2.50639431e-02 8.91117528e-02
      -4.53527309e-02 1.76199809e-01 -1.19072283e-02 9.96238589e-02
      5.43447919e-02 6.79650977e-02 -4.71565686e-02 5.33507615e-02
      -6.79580942e-02 1.39334872e-02 5.12306904e-03 -3.06611955e-02
      5.38599119e-02 -9.43808779e-02 3.28582376e-02 7.48757422e-02
      -1.11706749e-01 1.18972234e-01 4.77506407e-02 -5.67787923e-02
      1.20424427e-01 3.56010385e-02 -6.25934452e-02 7.16773719e-02
      -5.20605706e-02 1.88037995e-02 -1.10478982e-01 3.94113958e-02
      -2.13907938e-02 -9.58509594e-02 1.66749172e-02 2.98327450e-02
      -4.14237715e-02 -1.81068666e-03 9.88902971e-02 -9.36926454e-02
      -1.44935343e-02 1.04037434e-01 -3.16634253e-02 -3.95856909e-02
      3.16202417e-02 -5.40562794e-02 -6.80950955e-02 6.52369484e-03
      9.04825330e-03 6.00547493e-02 -2.03746874e-02 4.69403379e-02
      3.33331972e-02 2.74937246e-02 -8.38331059e-02 -3.01497243e-02
      8.59379545e-02 2.27340907e-02 1.92019828e-02 -2.32779719e-02
      -1.16993848e-04 -3.56880836e-02 3.25493924e-02 2.73194648e-02
      1.00785103e-02 -4.92213406e-02 -4.06997837e-03 2.18605679e-02
      -1.40536800e-01 -2.67113987e-02 -2.53967177e-02 -9.99379382e-02
      2.57614348e-02 4.10971083e-02 -9.70479846e-02 6.95073828e-02
      -4.89036366e-02 -3.02433111e-02 1.55315371e-02 4.88152020e-02
      5.97772747e-02 3.58245132e-04 -1.59077942e-02 5.74281476e-02
      5.95728010e-02 8.80114213e-02 -9.88665447e-02 -6.62177335e-03
      4.18471731e-02 -2.58153267e-02 6.36739731e-02 4.90160882e-02
      -5.18400408e-02 -4.42406535e-02 -7.49021843e-02 2.48977076e-02
      -1.33868903e-02 6.19634986e-02 4.98232991e-03 -7.71558881e-02
      5.74280918e-02</_>
    <_>
      -2.46172901e-02 1.32107899e-01 -5.52901775e-02 -9.26197618e-02
      3.46871018e-02 7.74537101e-02 -6.96464181e-02 9.46932733e-02
      -8.12239274e-02 -7.13778734e-02 -3.57207768e-02 -6.43895641e-02
      -7.66274929e-02 5.00726625e-02 -5.85616641e-02 -1.01386003e-01
      8.92918184e-02 -7.47096911e-02 1.32756218e-01 -2.71395352e-02
      5.24720587e-02 1.11446649e-01 -1.12465702e-01 6.98014647e-02
      -1.32142484e-01 9.24890190e-02 -5.81109151e-03 1.60341054e-01
      5.47417328e-02 9.17164758e-02 1.06902547e-01 1.16046719e-01
      -3.53848003e-02 2.41213702e-02 7.41891039e-04 4.58851196e-02
      1.77666880e-02 -1.39003783e-01 2.56691813e-01 7.61401281e-02
      -6.10493459e-02 5.63798770e-02 -7.52789760e-03 1.25282660e-01
      1.00323021e-01 -3.58597860e-02 -2.77462043e-03 -1.41094485e-02
      -2.54571270e-02 1.73319265e-01 1.13904374e-02 -2.85052396e-02
      2.69329175e-02 6.80616451e-03 -6.64493814e-02 2.13356165e-04
      -7.01084882e-02 -5.66326529e-02 6.38440773e-02 -2.09519863e-02
      7.54215405e-04 5.05308993e-03 -7.31794909e-03 1.98762193e-02
      -8.36213827e-02 6.82924241e-02 -7.09855855e-02 8.36128965e-02
      8.25163871e-02 -2.76250206e-02 -1.74449314e-03 -3.03609967e-02
      2.63404325e-02 8.41502994e-02 -5.39018437e-02 -1.32367849e-01
      5.08698337e-02 -8.11997727e-02 1.92676522e-02 -1.52023062e-01
      6.85988516e-02 5.32351993e-02 7.27429092e-02 -1.29612774e-01
      -6.18253052e-02 -2.19524615e-02 1.12637877e-01 5.08584362e-03
      -2.27667913e-02 1.12635139e-02 -3.49799059e-02 -3.94807421e-02
      2.96728313e-02 1.01927936e-01 -8.11288208e-02 -7.73333292e-03
      1.08131543e-02 1.45236300e-02 -5.85390031e-02 1.27736390e-01
      -2.51222886e-02 -6.64315522e-02 -8.76022577e-02 3.43351811e-02
      4.51874025e-02 -2.38066576e-02 -7.31965480e-03 4.01885025e-02
      7.27817714e-02 -1.02883659e-01 -4.84831743e-02 -1.46443425e-02
      -1.22280065e-02 5.26662506e-02 9.25252810e-02 1.07634617e-02
      4.09672186e-02 1.04090096e-02 -6.17678985e-02 -1.54662028e-01
      2.78692674e-02 -4.43304889e-02 2.01419536e-02 8.43308046e-02
      -1.58512592e-03 3.45788971e-02 1.74588580e-02 7.92973861e-03
      2.76188571e-02 -2.38035508e-02 3.21819149e-02 -3.22848223e-02
      -4.04856764e-02 5.35851568e-02 6.00841874e-03 -2.06230283e-02
      1.18945837e-02 6.23164512e-02 -6.25422597e-02 -6.92426041e-02
      -1.80862769e-02</_>
    <_>
      -7.60982037e-02 3.45415063e-02 -5.63360415e-02 6.97337044e-03
      -1.06249429e-01 1.98777184e-01 -1.64378464e-01 5.49077243e-02
      -1.17115593e-02 -2.95823552e-02 4.65333983e-02 -4.76505198e-02
      -1.20266147e-01 7.62541220e-02 6.33512158e-03 -1.18051343e-01
      1.14138737e-01 -1.41065925e-01 1.51614383e-01 9.51562729e-03
      -1.28839854e-02 -3.69046070e-02 -2.84668893e-01 8.83596689e-02
      -1.07757770e-01 -1.32987155e-02 -8.74340832e-02 9.52870026e-02
      -2.71382462e-02 4.06643040e-02 8.34522918e-02 1.67654067e-01
      1.67143065e-02 -7.12476298e-02 -4.74861749e-02 4.97126319e-02
      3.73379663e-02 -1.12186447e-01 1.23545319e-01 -1.14587834e-02
      4.42576967e-02 -5.20203933e-02 1.41899079e-01 -1.18644796e-02
      -4.26710956e-02 -1.83386263e-02 7.54361302e-02 -2.25147642e-02
      1.16906345e-01 1.16307616e-01 8.33416060e-02 6.37565181e-02
      1.56662211e-01 -6.51123002e-02 -3.65677513e-02 3.43961921e-03
      -2.69170143e-02 4.88532148e-02 3.09098996e-02 -3.51522258e-03
      -3.30148712e-02 -4.23924960e-02 -9.40048508e-03 9.18636695e-02
      3.64859868e-03 -3.53915952e-02 -4.26402036e-03 8.68626696e-04
      -1.07063055e-02 5.45055084e-02 -2.79990602e-02 5.48010692e-02
      1.28840739e-02 -7.83046931e-02 -3.99290398e-02 -4.33382690e-02
      -7.91289136e-02 -1.49695268e-02 1.65263545e-02 -6.17790148e-02
      9.42902863e-02 2.21611504e-02 3.61598618e-02 -5.36983013e-02
      -9.45456773e-02 -6.95759803e-03 1.47886295e-02 -1.24528579e-01
      -7.18748942e-02 -2.29382236e-02 -7.55206645e-02 -6.82039335e-02
      1.09805819e-02 1.79245360e-02 -4.03588153e-02 3.05004790e-02
      -3.98774035e-02 1.05065396e-02 7.50597520e-03 -6.67873118e-03
      -6.93966821e-02 -1.78482719e-02 -6.23255819e-02 5.89760356e-02
      7.71337077e-02 -8.55424926e-02 -5.36443107e-02 7.45987669e-02
      7.27905035e-02 -1.13153256e-01 -4.87175304e-04 4.10136022e-02
      -4.71565966e-03 2.58240160e-02 -1.21283415e-03 -2.57130824e-02
      2.13063806e-02 -2.29716878e-02 -2.55258735e-02 -3.73789780e-02
      5.22066355e-02 1.09895123e-02 -8.97429287e-02 2.23589297e-02
      4.13974859e-02 -5.07403649e-02 1.92537802e-04 -1.94419865e-02
      4.55251075e-02 -9.09355935e-04 1.05236053e-01 6.44986704e-02
      -5.96209131e-02 1.00872613e-01 -8.73330832e-02 2.21677888e-02
      -3.62944491e-02 1.01194948e-01 4.84338365e-02 -7.37699643e-02
      3.86451744e-02</_>
    <_>
      -4.32256721e-02 5.75111397e-02 -2.11371053e-02 -4.65785600e-02
      -3.08588743e-02 3.28122079e-01 -2.77758330e-01 -7.77839571e-02
      6.37523308e-02 6.64343536e-02 4.51571606e-02 -1.08799804e-02
      -7.24260435e-02 7.18795359e-02 7.65777603e-02 2.90844329e-02
      1.93318993e-01 -1.40802152e-02 3.13652158e-02 -3.40552372e-03
      -1.51367769e-01 6.07823916e-02 -2.21954674e-01 3.73422317e-02
      -1.38786972e-01 -3.92028689e-02 1.43122429e-03 -2.93603390e-02
      3.63618247e-02 -1.03371970e-01 5.87746389e-02 -1.52100064e-02
      7.56131783e-02 6.97638392e-02 8.81727189e-02 -5.38350530e-02
      5.18196821e-02 -8.85595232e-02 2.62846444e-02 1.30448893e-01
      7.08401501e-02 3.35667767e-02 2.29054429e-02 -1.81029364e-02
      7.01914430e-02 2.09667496e-02 9.66174603e-02 -1.07085183e-02
      1.71806514e-01 -5.27714789e-02 1.04002737e-01 -1.97426882e-02
      1.09326737e-02 -1.29466698e-01 7.87987956e-04 -2.89333072e-02
      3.35427164e-03 6.18716516e-03 5.40827774e-02 9.36802011e-03
      -2.32560188e-02 -8.76223594e-02 1.79017261e-02 4.47467975e-02
      -1.20668881e-01 -3.39781567e-02 3.27835754e-02 8.25293884e-02
      8.21797699e-02 3.20751965e-02 -8.54088962e-02 7.17105493e-02
      -2.79978327e-02 -3.45391519e-02 -1.00976512e-01 -5.06844185e-02
      2.54546525e-04 -9.86570492e-02 6.66237622e-02 -9.79289487e-02
      -4.06031683e-02 -3.31095606e-02 3.92078795e-03 -5.01718037e-02
      1.84843596e-02 -1.64048541e-02 -3.44760269e-02 -7.43480325e-02
      3.61470543e-02 -4.18696366e-02 -1.22410864e-01 -5.77287450e-02
      -9.67869535e-03 6.06125370e-02 -1.18628561e-01 -1.87217873e-02
      -1.49318483e-02 2.01318949e-03 -9.53666791e-02 -5.96166924e-02
      6.97494671e-02 -4.75142896e-02 -1.66274868e-02 3.00944261e-02
      7.47540453e-03 -6.87304884e-02 -3.77358939e-03 8.71096924e-02
      5.60591333e-02 -2.24061366e-02 -1.26849450e-02 1.44391274e-02
      -7.66221108e-03 -3.46699134e-02 -5.95144322e-03 -1.07283695e-02
      5.75812124e-02 -6.22371137e-02 -7.48973666e-03 -7.15219006e-02
      -1.17072845e-02 -9.83598735e-03 -2.47522984e-02 -1.92237855e-03
      -1.46067720e-02 -2.68686912e-03 -1.90504722e-03 -1.00681307e-02
      5.44077344e-02 1.17360763e-02 2.86145974e-02 2.16233209e-02
      -2.57050917e-02 4.14496660e-02 5.61551675e-02 1.37698185e-02
      -7.93767795e-02 -6.83470489e-03 -6.98654205e-02 -1.18041867e-02
      -4.22181636e-02</_>
    <_>
      -1.62225310e-02 2.69515775e-02 -1.59850061e-01 -1.09050862e-01
      -1.02513216e-01 1.82805851e-01 -1.61473095e-01 7.10437223e-02
      3.37145012e-03 -3.75806727e-02 -1.40231308e-02 -9.05710086e-02
      -1.39046922e-01 -2.40942258e-02 1.43595180e-02 -1.17288858e-01
      3.29716876e-02 -3.56587134e-02 -4.41027656e-02 1.23733200e-01
      3.61452252e-03 -3.25370245e-02 -7.52678663e-02 -5.01459017e-02
      -7.72095919e-02 9.28744674e-02 -5.01999855e-02 -4.45075613e-03
      -8.63117725e-02 -5.41784987e-02 -5.92847960e-03 9.98111442e-02
      -9.05705243e-03 4.27463315e-02 8.81392136e-03 1.20042071e-01
      -5.52900974e-03 -2.26794891e-02 9.83169898e-02 4.85531874e-02
      5.74400239e-02 1.48464426e-01 4.08143848e-02 6.52906224e-02
      4.17619720e-02 -1.12660207e-01 1.48844002e-02 -7.73154646e-02
      1.20665260e-01 -1.55732289e-01 1.25230681e-02 3.45361531e-02
      -2.36190557e-02 -9.41333454e-03 -8.41260031e-02 -8.01620856e-02
      -3.99884693e-02 -1.01657823e-01 1.54699072e-01 2.12860685e-02
      -3.04405075e-02 -1.06712937e-01 -6.51639700e-02 -3.78351584e-02
      1.36408806e-02 -3.62953171e-02 4.91367131e-02 7.50655383e-02
      1.89501327e-02 4.88161445e-02 -5.09054735e-02 5.70813790e-02
      -2.67814919e-02 5.08900499e-03 1.50501374e-02 2.79224999e-02
      -2.44702939e-02 2.14840360e-02 4.64940220e-02 -9.14969519e-02
      5.16322739e-02 -5.23384064e-02 -1.11404844e-01 -1.83578096e-02
      -2.42197420e-02 -7.87147284e-02 4.33552638e-02 -2.75677256e-02
      -1.73961103e-01 -1.54798225e-01 1.67410960e-03 9.63429082e-03
      8.22863579e-02 -5.46177365e-02 -5.23607358e-02 -3.92078869e-02
      -1.15133114e-01 2.27685217e-02 -5.15273847e-02 -8.88502412e-03
      1.35407615e-02 -1.10332049e-01 1.92100778e-02 -4.04413156e-02
      -3.04367654e-02 -3.78762931e-02 6.80832490e-02 8.24488774e-02
      3.54465395e-02 -1.12542965e-01 -1.57216340e-02 2.43853256e-02
      6.59171045e-02 3.18160653e-02 4.82384823e-02 -2.80962922e-02
      1.10206693e-01 -1.61561798e-02 3.52330618e-02 -2.09309924e-02
      1.19153168e-02 -7.96415843e-03 3.02287322e-02 -1.04429396e-02
      -6.07220381e-02 -3.94404233e-02 -6.62824214e-02 3.45092490e-02
      6.52039349e-02 1.03073597e-01 1.25071123e-01 3.46804000e-02
      -1.45441607e-01 5.29290885e-02 -1.57282259e-02 1.18716955e-02
      -2.59861369e-02 -3.00444607e-02 -7.87310302e-02 2.50236355e-02
      -2.22547948e-02</_>
    <_>
      1.28729001e-01 1.65461108e-01 -2.61424333e-02 5.64930178e-02
      5.59408888e-02 1.12880450e-02 -5.89998346e-03 -1.81340259e-02
      6.10498153e-02 -1.69914458e-02 2.55853664e-02 -4.92988415e-02
      4.91698906e-02 1.27145663e-01 -5.30713648e-02 6.75500184e-03
      -4.82967347e-02 1.47229657e-01 1.63323358e-01 -9.14265811e-02
      -2.71231830e-02 -2.79758628e-02 9.99187157e-02 -3.80697921e-02
      -1.14827141e-01 8.74484926e-02 4.86811809e-02 -3.24936397e-02
      -1.80753961e-01 -6.40314519e-02 8.28606039e-02 1.50226522e-03
      6.24498017e-02 -1.86067909e-01 -1.10632569e-01 -6.44495413e-02
      1.24803968e-01 1.05811199e-02 1.51469678e-01 7.31946304e-02
      -8.59589428e-02 1.16575379e-02 -2.42907435e-01 5.18577769e-02
      5.99139817e-02 -1.33915208e-02 6.54238984e-02 1.59691364e-01
      2.06691306e-02 1.12740472e-01 -1.00306876e-01 -2.07249392e-02
      3.10537908e-02 9.67882425e-02 1.25182137e-01 7.36076981e-02
      1.22350439e-01 -8.88548493e-02 -3.66707258e-02 2.87494231e-02
      9.58101451e-02 1.08182706e-01 1.73521135e-02 1.73730426e-03
      -2.37450022e-02 -4.83039021e-02 -2.60902345e-02 -4.26690765e-02
      3.43647860e-02 1.78278312e-02 6.23318031e-02 -3.84650230e-02
      -2.32292130e-03 1.05674090e-02 -1.24317348e-01 9.67327598e-03
      -3.85019071e-02 -4.15602885e-02 3.14484462e-02 -5.72409655e-04
      -2.55532321e-02 -1.41019924e-02 1.35952898e-04 -5.31349406e-02
      4.84855734e-02 2.84573641e-02 4.74022254e-02 9.77574568e-03
      -7.65811279e-02 -3.51752783e-03 6.26845211e-02 4.76148091e-02
      -4.61307578e-02 -2.83601377e-02 -8.55565965e-02 1.02652431e-01
      -3.16787884e-02 -8.95041525e-02 -8.48671198e-02 9.69918743e-02
      -5.48162200e-02 -4.83355746e-02 2.63394825e-02 -7.58823231e-02
      -7.02778697e-02 4.39411141e-02 -7.58396685e-02 -2.43109241e-02
      -1.09824995e-02 1.35889620e-01 1.25442967e-01 3.51758488e-02
      8.55459948e-04 5.38789779e-02 5.50663434e-02 -6.43706396e-02
      1.35883586e-02 8.37232396e-02 9.89896730e-02 -3.62649336e-02
      2.83898935e-02 -8.45927745e-02 3.32317352e-02 -1.48021488e-03
      5.60606457e-02 -4.31659259e-02 -1.25927096e-02 8.44937712e-02
      -3.96480560e-02 1.89013258e-02 9.50869322e-02 2.49579865e-02
      4.88211215e-02 8.16293899e-03 2.33618114e-02 -3.30785550e-02
      6.60120621e-02 -5.20283403e-03 2.89342720e-02 -4.04766984e-02
      -2.75836717e-02</_>
    <_>
      -6.55831397e-02 -7.92015344e-02 -2.43967310e-01 -6.42258599e-02
      1.35305539e-01 7.87092224e-02 7.40179569e-02 9.91338864e-02
      3.12121175e-02 -9.47304592e-02 2.81948578e-02 1.17026716e-01
      -1.50043517e-01 -4.92719710e-02 2.60286778e-01 -7.61319324e-02
      9.61370543e-02 -1.67880170e-02 -4.49214838e-02 -5.52894035e-03
      6.51506186e-02 -1.31982595e-01 -1.32961333e-01 4.17954326e-02
      1.25405580e-01 4.86856923e-02 -6.82359189e-02 7.39058554e-02
      -2.59242039e-02 1.39285356e-01 3.90364230e-02 9.72833559e-02
      -4.39045690e-02 9.56649408e-02 5.55212535e-02 -1.46590605e-01
      -6.01363815e-02 9.29708034e-02 3.47594768e-02 1.45317063e-01
      -8.04964826e-02 -4.38297540e-02 1.13728195e-02 1.37065584e-02
      3.52326706e-02 -5.77804334e-02 5.19492030e-02 -3.05092540e-02
      8.82637724e-02 1.70516565e-01 1.33392558e-01 -1.11465696e-02
      -6.28901273e-02 5.48571274e-02 4.81346156e-03 8.42995662e-03
      2.52119508e-02 7.88306519e-02 -1.65993795e-01 -7.15397531e-03
      -3.99128050e-02 4.03434634e-02 3.70712876e-02 -5.55715822e-02
      -1.30538205e-02 1.26802534e-01 1.13276750e-01 4.21337560e-02
      1.85788944e-02 -2.96442211e-02 2.58651818e-03 -4.83057052e-02
      1.18169136e-01 -9.78683606e-02 -3.08869388e-02 2.73821950e-02
      3.53426561e-02 -3.49669382e-02 -2.41808258e-02 -7.87943527e-02
      6.53236359e-02 -7.67582953e-02 -8.09356850e-03 1.64874732e-01
      1.53391078e-01 7.62214884e-02 8.88978019e-02 1.02788724e-01
      -2.56651212e-02 4.21316922e-02 -1.68357790e-02 -3.84673886e-02
      1.20127983e-01 2.39509996e-02 -7.62984529e-02 -2.00772397e-02
      -8.11593980e-02 -2.26736218e-02 8.07868615e-02 3.16344164e-02
      4.82262000e-02 6.28100112e-02 1.57887116e-02 -4.41358387e-02
      -4.07882072e-02 -4.94911075e-02 4.01373841e-02 -8.47227499e-02
      -3.91738862e-02 5.69344312e-02 3.04383859e-02 -2.61921119e-02
      -3.73312347e-02 -1.43997781e-02 -2.79412288e-02 9.17467773e-02
      -2.92278565e-02 -9.65373311e-03 -3.12844440e-02 -6.16036505e-02
      -6.43249899e-02 -4.55475189e-02 4.65762690e-02 -4.64744531e-02
      -2.35258508e-02 -9.02845040e-02 6.30284939e-03 -1.08265094e-02
      -2.77476013e-02 5.78934401e-02 -3.03598642e-02 1.02401469e-02
      3.92021872e-02 2.55150627e-02 6.75880834e-02 -3.02567380e-04
      1.04723591e-02 5.19816242e-02 -9.37984735e-02 3.27646844e-02
      -3.93515974e-02</_>
    <_>
      1.67261422e-01 1.84177205e-01 -1.34570986e-01 5.62990317e-03
      4.49698977e-02 7.60381157e-03 -3.24539654e-02 -3.71939652e-02
      8.51045270e-03 2.64040809e-02 3.51137773e-04 -1.05525151e-01
      3.51625718e-02 1.08039409e-01 -1.52452335e-01 -6.81459010e-02
      4.97212000e-02 1.37366503e-01 6.86308965e-02 6.15342483e-02
      9.17841680e-03 4.00353596e-02 9.13481936e-02 2.48412751e-02
      -4.16420680e-03 1.10137695e-02 -1.10023106e-02 4.91543226e-02
      -2.66547278e-02 -8.84409398e-02 -1.49977589e-02 -8.19093212e-02
      9.35158059e-02 -2.22648755e-01 -7.35208914e-02 -7.53530860e-02
      5.48562706e-02 6.87559275e-03 8.13026577e-02 3.97877432e-02
      -3.50829884e-02 -2.55801696e-02 -1.13772318e-01 2.05173954e-01
      1.72325149e-01 -3.06426324e-02 4.56843525e-02 1.57164350e-01
      2.86355056e-02 1.11970328e-01 -3.65754329e-02 1.46998949e-02
      -1.61619892e-03 7.96226785e-02 -6.32480299e-03 2.51295343e-02
      1.61376864e-01 -5.62334061e-02 -4.27341200e-02 -1.83543563e-02
      1.08378068e-01 6.39640763e-02 1.96640864e-02 3.43747810e-02
      -5.32363318e-02 -7.65137970e-02 -1.24951247e-02 -1.07361779e-01
      8.10203031e-02 -4.40028816e-04 -7.74330944e-02 -1.25161946e-01
      -3.73558626e-02 -4.29193266e-02 -1.72235928e-02 -2.41169091e-02
      -2.99020745e-02 4.27957252e-02 -7.67668933e-02 9.50437859e-02
      -1.99796595e-02 6.75316229e-02 8.32889080e-02 -3.82901691e-02
      2.65444275e-02 -4.05636057e-03 1.22708447e-01 -1.37125235e-02
      -3.10889650e-02 7.20075797e-03 7.13318810e-02 4.40995991e-02
      -2.67806835e-02 4.11006771e-02 -5.08261435e-02 5.82978949e-02
      -1.58659611e-02 -5.37221022e-02 -1.49421450e-02 3.81665565e-02
      -2.03687437e-02 -1.26232393e-02 -5.42580374e-02 -6.84034154e-02
      -5.95485047e-02 8.88739601e-02 2.14509722e-02 -1.06715575e-01
      -1.29116014e-01 1.98767278e-02 5.40645793e-02 1.97833572e-02
      3.56287397e-02 -2.31547933e-02 -9.95597094e-02 -8.19118973e-03
      -7.33918929e-03 -8.85481481e-03 1.89151224e-02 3.15609984e-02
      -4.34747823e-02 -8.09545908e-03 3.33949216e-02 7.98878074e-03
      -6.75099418e-02 -1.68648630e-03 -1.63540915e-02 4.85431068e-02
      -1.00664750e-01 -5.47797009e-02 6.64115176e-02 5.89730740e-02
      -1.66765898e-02 6.99639693e-03 -3.05960799e-04 4.81853215e-03
      1.86930690e-02 -1.49718476e-02 -6.51146751e-03 -1.04980823e-02
      2.17037592e-02</_>
    <_>
      1.30796701e-01 1.47129804e-01 3.40257445e-03 -6.19017705e-02
      7.45891780e-02 -1.12462386e-01 -5.38525805e-02 -6.13820367e-02
      -1.98349617e-02 8.79552886e-02 1.25844508e-01 2.38705259e-02
      1.50355101e-01 8.56168568e-02 2.02334467e-02 5.52937612e-02
      -1.33968638e-02 1.48571834e-01 1.80575803e-01 -3.70311067e-02
      -2.54980475e-02 -4.01794314e-02 1.03040278e-01 2.22955756e-02
      -1.07629523e-01 7.55246058e-02 -1.45525718e-02 4.44019251e-02
      -7.23110959e-02 -4.58093546e-02 9.54620615e-02 -8.76913443e-02
      9.86630321e-02 -2.11648911e-01 -2.68124510e-02 -7.92937353e-02
      3.43180727e-03 3.39199342e-02 8.19627568e-02 8.40401724e-02
      -6.79583894e-03 -1.26550235e-02 -1.42880604e-01 6.91581815e-02
      2.92187985e-02 -3.08994111e-02 1.40394922e-02 1.31922528e-01
      7.77475163e-02 9.71768498e-02 -1.01132765e-01 -2.85022743e-02
      3.79685573e-02 2.46147942e-02 1.18775874e-01 -4.28078808e-02
      -5.58639988e-02 -1.90830827e-02 -4.98812273e-02 1.47941321e-01
      7.94108286e-02 7.28031918e-02 -2.46510431e-02 4.71173786e-02
      1.07214209e-02 -8.96549691e-03 -8.83371606e-02 -1.12071693e-01
      7.14441687e-02 -2.73195431e-02 2.37321053e-02 -1.02894373e-01
      -5.78903481e-02 -8.86774138e-02 -2.53286734e-02 8.29180479e-02
      -6.23892285e-02 3.08995582e-02 -8.08975101e-03 3.01799048e-02
      8.52135103e-03 7.83592910e-02 1.39183611e-01 -6.96073100e-02
      -1.00880461e-02 5.75738586e-02 6.28082976e-02 6.78244680e-02
      -7.33216330e-02 1.21985609e-02 5.90479262e-02 9.13830698e-02
      1.51043991e-02 3.65467481e-02 -4.55006249e-02 7.57933874e-03
      1.86117347e-02 -3.72904465e-02 -1.42074645e-01 3.31986696e-02
      -4.06223461e-02 -2.37374171e-03 -8.49000290e-02 -9.41407308e-02
      2.40722168e-02 1.28571521e-02 -1.89217553e-02 -2.05875188e-02
      -3.52172069e-02 -1.01671917e-02 1.39745563e-01 5.30742891e-02
      -2.77511254e-02 -5.57847954e-02 7.08665699e-03 -3.55225354e-02
      -2.32315641e-02 4.25178036e-02 -7.31769716e-03 4.43909504e-02
      5.14447838e-02 1.06310407e-02 5.74217699e-02 -3.70480269e-02
      1.05280289e-02 -7.68194720e-02 -8.08491744e-03 4.53899987e-02
      -9.03003737e-02 2.70771813e-02 9.97936949e-02 1.74321898e-03
      -5.82749397e-02 -5.18435724e-02 5.87686971e-02 -8.41282904e-02
      5.91083337e-03 7.05140233e-02 -1.04468036e-02 -5.92359118e-02
      2.82293055e-02</_>
    <_>
      1.78032190e-01 8.66289288e-02 3.23937610e-02 3.96678858e-02
      -1.39091648e-02 -3.41019183e-02 5.32572307e-02 -1.49770156e-01
      1.53940590e-02 -5.73507473e-02 -7.58671612e-02 -9.24523771e-02
      3.49352770e-02 8.86645764e-02 -4.86432686e-02 -9.39682424e-02
      9.99083444e-02 4.80767377e-02 1.97814569e-01 8.88992921e-02
      -9.63506773e-02 -4.99172695e-02 4.33735885e-02 -3.06261647e-02
      -6.43522963e-02 7.58525133e-02 -1.95339292e-01 -1.05554283e-01
      3.41575854e-02 -1.10641204e-01 1.62542358e-01 8.02834034e-02
      3.65785845e-02 -1.01863950e-01 -5.27380519e-02 -9.52643827e-02
      5.70159405e-02 -3.45512070e-02 6.68333694e-02 9.48246494e-02
      -1.13505706e-01 -1.86927412e-02 -5.59695484e-03 1.72636405e-01
      -1.49649139e-02 -1.41965672e-02 8.89231786e-02 7.34149218e-02
      1.47731416e-02 1.87619299e-01 -6.87841699e-02 2.74384562e-02
      -1.16959326e-01 2.61095185e-02 1.18264645e-01 3.60715622e-03
      2.70675123e-02 -7.16843829e-02 -2.48192046e-02 8.99520218e-02
      4.93342355e-02 9.01306644e-02 3.35514508e-02 -2.93786684e-03
      3.92781757e-02 -1.05839679e-02 -9.44798663e-02 -3.50061916e-02
      -8.03844109e-02 4.24912050e-02 -8.64034519e-02 -2.15142798e-02
      -1.41664278e-02 8.85418989e-03 -1.18592568e-02 6.13745824e-02
      -3.51100368e-03 -4.81555285e-03 -4.56416272e-02 1.21019024e-03
      8.79493207e-02 7.63779460e-03 -5.95227852e-02 -2.89305039e-02
      2.49937661e-02 2.48217210e-02 3.64914909e-02 1.10876821e-02
      -1.10077038e-01 -3.65719642e-03 4.13245223e-02 6.77608028e-02
      -2.08525695e-02 -8.89356434e-02 -1.23638464e-02 1.10603422e-01
      -4.06152979e-02 -1.73704192e-01 -8.06547478e-02 1.09545782e-01
      1.43047571e-02 -3.15906666e-02 -5.83809689e-02 -3.45260650e-02
      -5.57950735e-02 4.92292736e-03 -6.10706098e-02 -3.05813178e-02
      2.50251237e-02 7.07420111e-02 5.81158092e-03 -6.85787294e-03
      -7.03894123e-02 3.46231423e-02 1.32241091e-02 -5.53381667e-02
      9.29695368e-02 6.12841770e-02 -8.45875219e-02 3.51423025e-02
      2.95630004e-02 -1.75178181e-02 -5.90024143e-02 4.94180545e-02
      -5.23658581e-02 1.39548909e-02 4.42965217e-02 7.08067268e-02
      9.26276743e-02 -5.61652482e-02 5.78600317e-02 -3.81064750e-02
      1.04193442e-01 -1.15508437e-02 1.42208789e-03 -4.59523574e-02
      -1.20667359e-02 -1.33185098e-02 4.26294981e-03 -1.18259648e-02
      -1.23926336e-02</_>
    <_>
      -1.18514769e-01 1.81691110e-01 -4.36697043e-02 -2.26777956e-01
      1.00167081e-01 2.72133574e-02 -8.39073732e-02 6.11335412e-02
      -1.18203841e-01 -9.67671443e-03 -1.17629632e-01 -3.41559559e-01
      6.07768595e-02 -1.82847127e-01 -8.21448117e-02 1.63821191e-01
      6.22321628e-02 3.60687077e-02 7.09754303e-02 -1.31874695e-01
      3.09715401e-02 8.59935135e-02 -1.08872868e-01 2.80850381e-02
      1.50331631e-01 -1.72292337e-01 7.55906478e-02 -5.43353632e-02
      -8.15594122e-02 -9.11475439e-03 1.41767850e-02 -7.88339674e-02
      -1.27971351e-01 1.08825818e-01 -6.62579611e-02 -8.57964456e-02
      6.94669709e-02 -5.26137650e-02 -1.34753093e-01 -3.25033180e-02
      -7.40338489e-02 -9.91331935e-02 -7.19925985e-02 -3.37949209e-02
      -4.74927574e-02 7.46677816e-02 -3.24124545e-02 7.12435022e-02
      1.05852634e-02 1.06530197e-01 -1.07422404e-01 1.47299534e-02
      3.65966037e-02 -4.60988916e-02 2.36529168e-02 -3.28559354e-02
      -2.94457935e-02 -2.67777592e-02 5.54132648e-02 1.15136597e-02
      3.36261876e-02 1.97083466e-02 -8.84661302e-02 -4.27795835e-02
      -1.84624717e-02 -1.06733537e-03 -3.20132077e-02 -2.31458247e-02
      -4.57843840e-02 5.05495816e-02 -3.99794877e-02 -4.78048101e-02
      -1.95484329e-02 -4.10013599e-03 -3.43478583e-02 -1.33029353e-02
      5.67182451e-02 -5.20183295e-02 1.50541309e-02 -5.95111698e-02
      3.06308400e-02 2.29116180e-03 -1.36041164e-01 4.69642272e-03
      1.10097751e-02 2.65247859e-02 -2.02076584e-02 -2.99149100e-02
      1.52974366e-03 -4.44540605e-02 -3.51235569e-02 -1.17644956e-02
      1.62958503e-02 -1.36380494e-02 -4.99467440e-02 -1.89259567e-03
      -2.23444160e-02 1.54358894e-02 5.59526682e-02 5.20196697e-03
      6.02297904e-03 -5.39969280e-02 3.58285867e-02 -4.19154204e-03
      -5.17795887e-03 2.88867466e-02 5.79818711e-02 5.56722656e-03
      3.41962613e-02 -8.44114739e-03 6.78932220e-02 8.09304975e-03
      5.65742180e-02 2.55301641e-03 -4.78496552e-02 1.50108887e-02
      -2.79281456e-02 1.47335991e-01 -8.08133557e-03 -6.98949173e-02
      3.79527658e-02 6.66829497e-02 8.80561098e-02 1.55491838e-02
      3.98362949e-02 1.97201930e-02 6.46140724e-02 -1.27022061e-02
      -4.42515425e-02 -7.53764883e-02 9.67324991e-03 -3.68455239e-02
      3.83765399e-02 -3.35814357e-02 1.75944269e-02 3.19234915e-02
      -8.53320397e-03 -2.13353317e-02 2.05308255e-02 7.52007663e-02
      -2.03502029e-02</_>
    <_>
      -1.71705097e-01 1.38241127e-01 -2.32140981e-02 -2.00778320e-01
      1.50820121e-01 -2.74779070e-02 -6.94910660e-02 5.25212623e-02
      -1.00042656e-01 -2.75039580e-02 -1.25063553e-01 -1.97650090e-01
      2.90321466e-02 -2.21503954e-02 -1.46325514e-01 1.15290426e-01
      3.00463848e-02 5.09968884e-02 3.99806574e-02 -2.97580417e-02
      1.44935790e-02 7.17987493e-02 4.57859412e-03 -2.66262069e-02
      1.29546404e-01 -9.92763564e-02 -5.34274010e-03 -5.27986698e-02
      -3.60537767e-02 -7.48730376e-02 4.13766615e-02 -1.16170645e-01
      7.94208609e-04 1.12063751e-01 -1.90859735e-02 -1.50195599e-01
      1.01165250e-01 1.30507806e-02 -1.05929375e-01 -1.63485467e-01
      3.88516635e-02 -1.41587943e-01 -1.77446589e-01 2.24192105e-02
      -1.87410973e-02 -1.07827103e-02 -8.67081359e-02 -6.94753528e-02
      5.68140522e-02 1.07500896e-01 -3.10599096e-02 2.18152758e-02
      9.21695083e-02 9.08445567e-03 -1.88050121e-02 1.34433135e-01
      -1.01925269e-01 -4.76757362e-02 5.02062626e-02 5.17435707e-02
      5.37137091e-02 9.66778863e-03 -6.94426000e-02 1.05177686e-01
      6.34905994e-02 -3.88651192e-02 -2.45073996e-02 -1.07571051e-01
      5.13476599e-03 6.70109391e-02 -2.84546949e-02 -6.34084130e-03
      -1.10563092e-01 -2.05274634e-02 -1.26771271e-01 2.43610386e-02
      6.91692010e-02 -2.44973879e-02 -7.50818476e-02 5.53563517e-03
      -1.06718540e-02 1.83516927e-02 -1.24034740e-01 1.11026578e-02
      -7.75778219e-02 1.14009285e-03 1.50421411e-02 -7.69908801e-02
      1.06710354e-02 -1.87037035e-03 -1.04416318e-01 -2.63996813e-02
      -5.17607257e-02 -8.68901916e-05 -7.18925148e-03 -3.02169677e-02
      -1.23513713e-02 4.31482345e-02 1.07378490e-01 -4.64980341e-02
      1.81166790e-02 3.03127505e-02 -6.87760413e-02 5.58855683e-02
      5.28811216e-02 -6.64855689e-02 5.37216738e-02 4.28552814e-02
      -3.28598469e-02 -5.86572215e-02 1.74745824e-02 8.32932908e-03
      3.55514660e-02 -3.58124562e-02 -8.29840824e-02 8.51167515e-02
      -6.42468780e-02 7.10107163e-02 -1.25869187e-02 -3.17502692e-02
      1.20599270e-01 1.42221963e-02 3.24721523e-02 -1.90089140e-02
      -6.61744131e-03 5.31423427e-02 5.31918593e-02 4.18328755e-02
      -4.31538001e-02 -1.94549561e-02 -1.62621252e-02 1.09656610e-01
      4.67051044e-02 -3.10050300e-03 -1.01042399e-02 9.55148321e-03
      -6.34275824e-02 -3.86217721e-02 -3.32295857e-02 1.05082393e-01
      -6.67465338e-03</_>
    <_>
      -7.99826086e-02 1.16362050e-01 -8.68458208e-03 -2.29038551e-01
      1.31124005e-01 -5.36215631e-03 -8.14072341e-02 1.07943110e-01
      -6.88731521e-02 4.90726670e-03 -9.68775302e-02 -2.11792812e-01
      -7.86678493e-02 -8.20387751e-02 -1.64182693e-01 7.27578551e-02
      -3.72046456e-02 1.24032967e-01 5.37966639e-02 -4.34289016e-02
      1.79051794e-02 6.45598471e-02 -1.61137059e-02 1.48189822e-02
      9.16534141e-02 -2.32030209e-02 -5.75189898e-03 -8.21283683e-02
      -6.09894544e-02 -5.73867150e-02 -4.75556627e-02 -5.77898547e-02
      -6.33670464e-02 1.15795627e-01 -3.50529008e-04 -1.28280386e-01
      5.03937341e-03 5.24821989e-02 -4.54009026e-02 -3.65657695e-02
      9.29239094e-02 -8.21990743e-02 -1.59564137e-01 3.98449451e-02
      3.22486795e-02 2.03011036e-02 -8.78929272e-02 4.78917658e-02
      8.97690728e-02 7.94679821e-02 -8.56769551e-03 1.50943138e-02
      8.02161619e-02 -3.91870365e-02 -1.09612420e-02 1.01179682e-01
      -1.41558602e-01 -9.72324610e-02 7.85787329e-02 1.76924150e-02
      2.85126828e-03 7.30960667e-02 -4.58523333e-02 5.92842093e-03
      5.48241958e-02 -7.96300769e-02 -8.95423815e-02 -5.75414523e-02
      -5.06602265e-02 2.05269083e-02 -5.23823574e-02 -2.65635271e-02
      -1.17320791e-02 7.06730857e-02 -1.13789581e-01 -1.16967550e-03
      9.65254158e-02 -6.67919591e-02 1.70177501e-02 -5.02186865e-02
      4.70618904e-02 5.74280322e-02 -4.79621552e-02 1.17431981e-02
      -2.76610889e-02 2.23993305e-02 8.86642337e-02 -8.85617808e-02
      -4.82182717e-03 1.49642779e-02 -1.09244257e-01 -5.67465536e-02
      -3.05503588e-02 8.25328473e-03 -4.36837934e-02 -1.81432851e-02
      -1.08228559e-02 1.09786605e-02 7.34822899e-02 2.37106774e-02
      -1.27102965e-02 6.65969402e-02 -1.23957552e-01 5.39096706e-02
      5.87544926e-02 -2.10990962e-02 6.56580031e-02 9.29581225e-02
      1.30980890e-02 -3.99059169e-02 -8.41352681e-04 -2.18432155e-02
      1.00077026e-01 -6.87941536e-03 -5.76847270e-02 2.36450210e-02
      1.64300278e-02 3.57643850e-02 5.10597788e-03 -2.41356902e-02
      5.99856898e-02 -1.02174006e-01 1.12309240e-01 -1.38554577e-04
      -3.52841541e-02 7.24890083e-02 1.29398063e-01 -4.64113988e-02
      -9.55376476e-02 4.24948260e-02 -6.43704757e-02 5.55575378e-02
      -2.99002305e-02 -6.43951744e-02 6.81932271e-02 3.78610231e-02
      -6.37575611e-02 -2.23370492e-02 -2.25786809e-02 1.46782205e-01
      -4.23158100e-03</_>
    <_>
      -1.52478784e-01 1.31940067e-01 -9.82976854e-02 -2.00170204e-01
      1.73301041e-01 -2.35714242e-02 -3.26573439e-02 9.80936587e-02
      -1.11272924e-01 4.01678570e-02 -1.38897225e-01 -1.76951230e-01
      -2.21772846e-02 4.32100035e-02 -2.38448501e-01 1.29149795e-01
      -2.05673818e-02 7.05485567e-02 1.01609550e-01 6.96906596e-02
      -1.08612604e-01 2.10512206e-01 -2.45363601e-02 1.60303414e-02
      8.27238485e-02 -2.11536437e-02 -1.18059605e-01 -5.47193363e-02
      -6.54945821e-02 -7.74143171e-03 1.78719517e-02 -9.03871208e-02
      -3.19765583e-02 4.32405286e-02 6.06900454e-02 -1.61102816e-01
      -9.03949421e-03 7.24055842e-02 -2.34315228e-02 -1.75535291e-01
      8.27505365e-02 2.00807285e-02 -1.41709626e-01 3.46692987e-02
      -7.53072742e-03 8.70360434e-02 -1.13208331e-01 7.62269124e-02
      7.23224804e-02 5.40062524e-02 5.79791367e-02 -6.20778427e-02
      1.33534400e-02 -2.90246382e-02 9.89863724e-02 1.20429635e-01
      2.98879165e-02 -3.32656465e-02 4.95387912e-02 -7.25238770e-02
      4.64370511e-02 1.76223386e-02 -3.35039310e-02 5.60093969e-02
      1.67534966e-02 1.10902498e-02 6.16862737e-02 -6.86730891e-02
      -4.26251069e-02 -4.82085869e-02 2.08276510e-02 -3.47642088e-03
      -7.12655485e-02 -2.47063246e-02 -7.95462877e-02 -1.52804647e-02
      1.00967251e-01 3.50920036e-02 -1.28659364e-02 5.47432341e-03
      2.43769772e-02 2.77268887e-02 -4.89435382e-02 -8.25040266e-02
      -4.77808751e-02 -5.56132104e-03 -4.84265164e-02 -2.89926748e-03
      -1.21273696e-02 8.77927244e-03 -5.63297011e-02 6.03440516e-02
      -6.81124330e-02 2.06167996e-02 -8.90149474e-02 -3.85632291e-02
      8.68535489e-02 1.16117410e-02 3.89175713e-02 -3.43338884e-02
      -2.49243602e-02 2.37598177e-02 -3.79487723e-02 3.26208468e-03
      6.74800808e-03 -4.86255102e-02 1.24501906e-01 6.92069679e-02
      -1.31804878e-02 -7.41240382e-02 -5.78213707e-02 -3.01675182e-02
      -1.69600416e-02 -4.50806506e-02 -3.19669507e-02 5.51875867e-02
      3.79803926e-02 4.74348888e-02 1.27361240e-02 -5.66230193e-02
      1.71219185e-02 6.74033388e-02 4.09345329e-02 3.26022618e-02
      -4.17289399e-02 4.50935913e-03 1.65825449e-02 -1.73664801e-02
      -3.04274051e-03 -7.58825466e-02 -6.43844828e-02 7.99486190e-02
      5.93255311e-02 7.33283907e-02 -7.47284964e-02 1.39213931e-02
      -4.27982956e-02 1.46254208e-02 -3.74434236e-03 9.38169211e-02
      -3.04392856e-02</_>
    <_>
      -2.58282274e-01 6.11344129e-02 2.71474421e-02 3.66758392e-03
      1.63792446e-01 1.23261951e-01 7.47379661e-02 -6.95247427e-02
      8.79931599e-02 1.81742087e-02 -2.04961840e-02 4.46056947e-03
      1.52459338e-01 7.23425671e-02 -5.58686033e-02 1.95110943e-02
      -1.78138569e-01 3.01524792e-02 -1.43253461e-01 1.00615703e-01
      1.03087269e-01 -4.43058684e-02 9.01810229e-02 5.56648448e-02
      6.91372827e-02 -1.19188093e-01 -1.18712001e-01 -5.82686346e-03
      1.59648694e-02 9.29047018e-02 -4.64292727e-02 2.89845653e-03
      1.66959643e-01 -1.95260644e-02 5.23771122e-02 -8.25609341e-02
      -8.84508342e-02 9.25781857e-03 -1.19041996e-02 -1.99415199e-02
      -1.33658610e-02 -1.70377661e-02 4.71757678e-03 -3.77208106e-02
      1.98026886e-03 -3.92877832e-02 9.08428058e-02 -5.75575195e-02
      -5.30704856e-02 -3.24785225e-02 3.85710113e-02 1.53670823e-02
      -2.92017460e-02 -7.73567101e-03 -4.27617803e-02 -2.69262474e-02
      5.60982414e-02 -5.55663463e-03 -4.20903489e-02 -2.34184619e-02
      3.70523967e-02 -4.02227603e-02 -5.20249344e-02 -2.61277668e-02
      6.69991598e-02 -7.35700503e-02 1.69204585e-02 -1.48897748e-02
      2.60977596e-02 -1.54243216e-01 -7.25406632e-02 -5.08473441e-02
      1.43841624e-01 -5.32001555e-02 5.67323193e-02 5.60864285e-02
      -3.29544917e-02 6.18879348e-02 5.05149625e-02 -1.07607208e-01
      2.29115319e-02 1.13869555e-01 2.73050158e-03 -7.80542986e-03
      1.73996203e-02 6.76867366e-02 1.93373457e-01 -3.25823687e-02
      1.23286888e-01 8.06931779e-02 8.54757652e-02 9.61656496e-02
      -1.00745320e-01 5.76214455e-02 -5.64787723e-02 2.64715347e-02
      -6.58821687e-03 2.75400318e-02 -6.32866770e-02 -7.67538184e-03
      5.02091609e-02 3.17273699e-02 3.59099209e-02 8.65310431e-02
      -1.38788316e-02 5.83649054e-02 5.85269444e-02 -5.01838364e-02
      -5.20513207e-02 4.03191149e-02 4.53982316e-03 -7.39840325e-03
      4.00483459e-02 9.99949723e-02 7.00486242e-04 3.83239873e-02
      -5.53960763e-02 2.51157023e-02 2.67114472e-02 -1.10725984e-01
      -2.09641904e-02 9.02152061e-02 -3.52318548e-02 7.29241967e-02
      -2.23192899e-03 4.05595899e-02 -5.35777472e-02 1.24036158e-02
      1.50915841e-02 -2.69240886e-02 -2.18780804e-02 2.08881535e-02
      6.78554317e-03 3.35379578e-02 2.14591585e-02 7.40717873e-02
      -2.63589621e-02 -4.05682251e-03 -1.30299330e-01 -4.22072038e-03
      -1.25844004e-02</_>
    <_>
      -1.56696513e-01 -1.88783929e-01 -2.85970628e-01 -8.13663006e-02
      1.34533793e-01 5.62618636e-02 1.54113919e-01 1.29655734e-01
      -7.96937421e-02 -5.33433957e-03 5.46752326e-02 2.58344173e-01
      -1.50128916e-01 -1.33891791e-01 2.28950068e-01 -1.19193599e-01
      1.85912088e-01 4.62216139e-02 3.80334482e-02 -5.00770099e-02
      -3.26877722e-04 -5.96708767e-02 -9.84130949e-02 -1.44764939e-02
      1.21982753e-01 -1.27634391e-01 1.05739515e-02 -5.62418774e-02
      2.71534864e-02 5.98598830e-02 7.19427466e-02 1.35854781e-01
      -6.97039515e-02 -7.80005604e-02 8.48877579e-02 -4.50665355e-02
      4.82997596e-02 5.36334328e-03 5.93984872e-02 1.42175063e-01
      1.55105731e-02 -4.58939373e-03 -5.82330720e-03 -1.16267754e-02
      1.70220453e-02 -6.11315258e-02 8.91639069e-02 -3.95611189e-02
      5.32401577e-02 6.10925183e-02 3.82957049e-02 -2.15108953e-02
      -4.36520241e-02 1.41145978e-02 3.98905948e-02 1.40683856e-02
      3.26977707e-02 1.18334591e-01 -4.72322516e-02 -2.27388386e-02
      -1.00460965e-02 -2.49063633e-02 8.63044187e-02 6.66698860e-03
      -2.49281228e-02 1.23841137e-01 6.88236654e-02 -4.19932120e-02
      3.80060300e-02 1.48289073e-02 6.79932833e-02 -1.60607904e-01
      4.41178977e-02 -3.77862863e-02 -7.72463083e-02 4.91567701e-02
      -1.12441890e-02 -9.24926903e-03 -5.80314584e-02 6.38085976e-03
      2.41551325e-02 -2.80994084e-02 -1.82534363e-02 1.59753129e-01
      3.81346196e-02 9.29978043e-02 -3.49213220e-02 2.79421881e-02
      -2.62280880e-03 -2.21572760e-02 6.69221878e-02 -2.73714066e-02
      1.33432090e-01 4.03806567e-02 1.93868391e-02 2.78115086e-03
      8.88686534e-03 -1.94424968e-02 1.62588060e-02 3.43657173e-02
      2.66259466e-03 -1.98220033e-02 2.25310288e-02 2.29717679e-02
      5.30989729e-02 -4.19650823e-02 2.07874551e-02 -8.88460726e-02
      2.21491065e-02 6.47996813e-02 4.22756970e-02 1.55027527e-02
      3.63149494e-03 -8.32013041e-02 -6.44528717e-02 -7.62586072e-02
      9.16121528e-03 4.65537049e-02 2.01421417e-02 -8.54130834e-02
      3.15877013e-02 2.37751193e-03 -6.15626201e-03 -5.93397506e-02
      3.32738869e-02 -8.05386677e-02 -7.24185854e-02 -6.63722083e-02
      1.73503272e-02 -4.54021692e-02 -3.66638973e-02 3.16235633e-03
      -1.89386401e-02 2.78543141e-02 -4.18550745e-02 5.08783609e-02
      6.65759370e-02 2.15336643e-02 4.51756939e-02 2.03932486e-02
      2.32811683e-04</_>
    <_>
      -1.22205950e-02 2.54988857e-02 -1.34324878e-01 -2.31440231e-01
      -9.51127335e-03 2.42702648e-01 -1.65996656e-01 -7.54618868e-02
      -2.99701951e-02 -4.55697142e-02 1.68696985e-01 -1.39599517e-01
      -9.00179446e-02 -5.50809503e-02 1.16789073e-01 1.58367783e-01
      7.09579512e-02 -8.70969370e-02 -2.36704387e-03 -2.60433145e-02
      -6.86168224e-02 -5.14491796e-02 -4.91350293e-02 -4.33143787e-02
      7.27953687e-02 -3.79751958e-02 -5.43479361e-02 -4.21421230e-02
      -8.84692185e-03 -7.64113590e-02 1.18586406e-01 -9.13004205e-03
      -1.60171852e-01 9.97009575e-02 1.21717118e-01 -5.15591260e-03
      4.45689261e-03 1.75025687e-01 3.09387292e-03 8.40526745e-02
      9.67502370e-02 -2.66150553e-02 4.49979156e-02 -1.63420364e-01
      6.16165176e-02 5.13208564e-03 5.53210005e-02 -3.65882367e-02
      -6.34827241e-02 -5.90192378e-02 -1.43832713e-01 1.63257569e-01
      7.52901509e-02 7.96859059e-03 1.06705609e-03 1.91900283e-02
      -8.90347809e-02 -4.32475619e-02 3.10887806e-02 -2.01692954e-02
      1.81973390e-02 2.96891890e-02 8.12358260e-02 -3.19323712e-03
      -3.54950345e-04 2.20500352e-03 -2.96057537e-02 1.15755433e-02
      6.42675254e-03 -9.74170417e-02 -1.28337471e-02 6.27540946e-02
      -3.25466059e-02 4.70105447e-02 4.53927889e-02 -6.26521558e-02
      -5.05425930e-02 -9.13574994e-02 -6.04453273e-02 -9.75543540e-03
      -5.64147271e-02 2.43217833e-02 5.68401664e-02 -3.51446643e-02
      1.50397150e-02 -1.03370078e-01 1.01325914e-01 -1.98898185e-02
      3.00445314e-03 -2.77687032e-02 -1.94007400e-02 2.51687542e-02
      -2.34452747e-02 -5.90960644e-02 2.25782283e-02 2.48873513e-02
      7.23307196e-04 5.93974255e-02 -9.80550423e-02 3.92153040e-02
      -5.63519821e-02 -2.81342939e-02 1.56511106e-02 -2.41047726e-03
      9.72529873e-02 5.79506010e-02 -4.59424593e-02 -1.53314304e-02
      3.41586322e-02 1.17317736e-02 -3.73265073e-02 6.79555833e-02
      -7.84029253e-03 1.47160590e-02 -1.10583648e-01 6.89743981e-02
      -6.11415226e-03 7.84316007e-03 2.73441095e-02 4.10674401e-02
      -1.21700056e-02 1.71545967e-02 -2.51092785e-03 -3.36276926e-02
      -3.15925851e-02 -3.27916555e-02 -4.03148271e-02 3.74990925e-02
      1.91293322e-02 -6.53983057e-02 3.65487896e-02 -2.56159063e-02
      -8.36328883e-03 3.95214930e-02 6.58999309e-02 -8.45616162e-02
      1.18799321e-01 -6.61695004e-02 -4.82371487e-02 -5.22538871e-02
      3.23415622e-02</_>
    <_>
      -1.17087904e-02 3.08482070e-02 -1.71800822e-01 -1.74130231e-01
      5.05009778e-02 1.59621328e-01 -2.01350376e-01 -1.18742310e-01
      -3.33642103e-02 -4.92045246e-02 1.51362136e-01 -1.13880381e-01
      1.28961913e-02 -9.85345170e-02 5.78126274e-02 1.28325254e-01
      1.33025527e-01 -9.80673879e-02 4.34538648e-02 -1.60578790e-03
      -2.75726449e-02 -1.34404346e-01 1.55426348e-02 -1.25566676e-01
      4.23867293e-02 -7.97207505e-02 -2.19430104e-02 9.02696326e-02
      2.21189745e-02 -7.39604980e-02 3.20311338e-02 2.48536561e-02
      -5.02510332e-02 1.22390822e-01 1.35086104e-01 6.31077439e-02
      -1.15738958e-01 1.19968101e-01 1.74103305e-03 9.94306803e-03
      -7.74437888e-03 -3.84794623e-02 1.16227672e-01 -1.45951197e-01
      3.27958055e-02 6.27231896e-02 9.50921997e-02 -1.64271612e-02
      -1.05468392e-01 8.86912048e-02 -1.91618457e-01 7.27576762e-02
      1.52244285e-01 -1.29037062e-02 3.18825096e-02 3.19214649e-02
      -3.65499109e-02 7.32575729e-02 3.65115665e-02 -1.45498831e-02
      -7.70022795e-02 -2.39491854e-02 7.07027689e-02 5.97773865e-02
      -4.79900576e-02 -1.55252544e-02 1.05605155e-01 -1.68913063e-02
      -6.65703695e-03 3.67293581e-02 -4.08290252e-02 -3.64749357e-02
      -8.94957315e-03 -1.63463387e-03 2.40354668e-02 -5.54370321e-02
      -5.42237889e-03 -8.71567279e-02 -1.17307633e-01 -4.56480868e-02
      -4.57663499e-02 6.71387389e-02 4.85616848e-02 3.59834768e-02
      4.48244484e-03 1.88415106e-02 -5.28080240e-02 2.03530514e-03
      1.18528735e-02 -6.35176823e-02 6.62791077e-03 -5.80379963e-02
      -4.44837734e-02 -2.61391909e-03 -7.48664811e-02 2.45656818e-02
      -5.99479116e-03 -3.20778228e-02 -1.04404829e-01 -2.69771144e-02
      1.66754832e-03 -7.85985813e-02 6.00532964e-02 4.46985364e-02
      -7.91200029e-04 -2.05077846e-02 -1.40382750e-02 -5.60905552e-03
      8.66465047e-02 -7.15016350e-02 7.31805936e-02 1.78578291e-02
      -3.99514847e-02 2.58298386e-02 3.32410890e-03 6.64621219e-02
      -4.36336026e-02 6.69709817e-02 -3.21199037e-02 -4.59582321e-02
      -2.47161705e-02 6.02678023e-02 9.59373172e-03 -7.19355652e-03
      1.38143934e-02 -5.76227419e-02 -7.59390369e-02 1.02343678e-03
      -5.75120421e-03 -7.16518834e-02 -7.97958579e-03 -5.01107946e-02
      -8.91355984e-03 3.33627239e-02 -9.35948803e-04 -1.81709118e-02
      -7.26331174e-02 -1.67956503e-04 -2.22306959e-02 -3.71403135e-02
      -1.41588366e-02</_>
    <_>
      -2.73813456e-02 1.26954034e-01 -6.11930564e-02 -1.49892911e-01
      9.81902480e-02 1.89154789e-01 -2.31598854e-01 -7.43304566e-02
      -1.56627476e-01 -5.97990789e-02 1.37522042e-01 -4.30682115e-02
      -1.86146349e-01 -4.58861217e-02 1.26223415e-01 1.83141381e-01
      7.02835768e-02 -6.35047927e-02 8.56467858e-02 -3.15417461e-02
      -1.71994239e-01 -3.91449630e-02 -1.46949932e-01 -2.39396244e-02
      1.28071919e-01 -9.11555067e-02 -5.77652231e-02 6.72873706e-02
      -5.03232107e-02 -1.82101522e-02 5.38800843e-02 4.71591204e-02
      9.69969947e-03 9.39483941e-02 1.71922952e-01 -7.90931955e-02
      -2.04691309e-02 8.51426050e-02 -2.13832762e-02 8.33478123e-02
      5.62977418e-02 -5.53913526e-02 4.05776501e-02 -1.20640934e-01
      7.23554520e-03 1.06159016e-01 -1.63641348e-02 -1.05258832e-02
      -1.02910616e-01 6.52467310e-02 -8.95835757e-02 7.94262215e-02
      1.67639479e-01 -7.93084269e-04 1.13100717e-02 9.01575461e-02
      1.41286082e-03 -7.60258175e-03 9.21258256e-02 -1.06848493e-01
      -4.83518764e-02 7.86546152e-04 -9.29385796e-03 3.11245676e-02
      -5.19232340e-02 -9.04675797e-02 -6.29445212e-03 -2.47304104e-02
      -4.48886231e-02 -2.22131703e-02 -1.82321239e-02 1.49006722e-02
      4.69410996e-04 -3.37858200e-02 3.13538872e-02 -4.63574342e-02
      -2.77859438e-02 -1.03345416e-01 -7.58735240e-02 -3.99027951e-02
      2.02703513e-02 1.41203120e-01 8.32936075e-03 6.75102025e-02
      3.88847338e-03 -9.73935181e-04 -3.11791096e-02 3.29619274e-02
      -4.11106125e-02 2.29079742e-02 3.56075051e-03 -2.52911635e-02
      -6.07562475e-02 1.55540965e-02 -8.40913132e-02 2.33307760e-02
      7.35319927e-02 4.35049692e-03 -6.40204772e-02 4.70052585e-02
      -3.59753221e-02 -4.46545780e-02 3.37019227e-02 9.56376716e-02
      3.84841561e-02 5.07148579e-02 -3.24824862e-02 -5.39585650e-02
      4.01318818e-02 -3.11548617e-02 -3.29285376e-02 2.47128885e-02
      -1.39875326e-03 -1.86331719e-02 -7.43926130e-03 6.19774014e-02
      1.38225807e-02 -1.32894628e-02 -5.52388979e-03 -4.62704292e-03
      -3.75840291e-02 1.60778221e-02 -6.88050687e-03 5.16998023e-03
      1.79990213e-02 -5.65764271e-02 -3.38208303e-03 8.02574530e-02
      3.13559510e-02 -7.07191415e-03 -7.42116123e-02 -4.87731360e-02
      -4.82776714e-03 1.96473971e-02 1.96545385e-02 -5.35581112e-02
      6.11273758e-02 -7.39064962e-02 -9.29354411e-03 -5.10621667e-02
      9.16448794e-03</_>
    <_>
      6.37632757e-02 1.29662752e-01 1.24645814e-01 4.03102748e-02
      2.94282697e-02 -7.55733401e-02 1.72526047e-01 9.98472944e-02
      3.06016859e-02 4.59726620e-03 8.30486044e-02 2.53152829e-02
      4.09795493e-02 8.57636705e-02 1.01412788e-01 -7.60924518e-02
      -3.12823579e-02 4.86484319e-02 -1.80572674e-01 8.41929466e-02
      -7.26495087e-02 1.19992435e-01 1.01968984e-03 8.15639645e-02
      7.23251030e-02 4.06789221e-02 5.81853203e-02 5.19934408e-02
      -1.32538274e-01 2.70404518e-02 5.96867353e-02 -4.68867011e-02
      -1.51929736e-01 9.95350480e-02 -2.89865416e-02 2.74380036e-02
      1.04995765e-01 -9.29737743e-03 7.29250386e-02 -5.14457002e-02
      -4.01438884e-02 -6.11008629e-02 1.17810905e-01 1.75692309e-02
      -9.11513790e-02 2.31684148e-02 -4.47684936e-02 -1.31814396e-02
      -1.13626728e-02 -8.84030312e-02 7.79046789e-02 -6.26081154e-02
      7.63814524e-02 -1.02817848e-01 -6.28215075e-03 3.46459337e-02
      -5.99043667e-02 -1.15864784e-01 -1.03178106e-01 -1.18808843e-01
      7.31774271e-02 -1.75790191e-02 4.61143330e-02 1.52719673e-02
      -2.71088425e-02 2.02148277e-02 5.59261888e-02 -8.40940338e-04
      -3.43087576e-02 -8.29665512e-02 -5.60663454e-03 -7.16693327e-02
      1.42213091e-01 4.27899584e-02 3.44433524e-02 2.79435851e-02
      2.53966153e-02 4.81407233e-02 1.70777719e-02 -8.24728906e-02
      1.34571418e-01 2.44638864e-02 3.13662142e-02 -4.67545129e-02
      -2.58766878e-02 -2.10110024e-01 -8.34328979e-02 4.65776026e-02
      3.70083712e-02 1.22473724e-02 -1.18025251e-01 6.57173917e-02
      2.35436335e-02 1.77609478e-03 1.01354653e-02 1.11928217e-01
      2.73398776e-02 -1.13750687e-02 5.30264452e-02 8.46608579e-02
      8.96841567e-03 -3.93263623e-02 4.10071388e-03 4.56846394e-02
      -1.26015805e-02 1.15158208e-01 -2.51906123e-02 5.88500127e-03
      2.57705618e-02 2.44704094e-02 1.08256526e-01 1.45522980e-02
      1.43519035e-02 9.31775272e-02 -7.19558075e-02 2.57295487e-03
      1.06897146e-01 4.16807868e-02 -1.25700599e-02 2.46925801e-02
      1.79920867e-02 -4.69140969e-02 -3.26314121e-02 7.36189857e-02
      -1.26725540e-01 -4.64197546e-02 -5.72333112e-02 1.96787044e-02
      3.05994693e-02 -2.51803361e-02 -1.22568225e-02 2.16720868e-02
      1.89517792e-02 4.82660793e-02 3.07175308e-03 5.58794551e-02
      8.37512240e-02 1.80220157e-02 -1.72886625e-02 -6.27663592e-03
      -5.17928936e-02</_>
    <_>
      -1.84186306e-02 2.08019882e-01 6.77111838e-03 -2.01886430e-01
      1.16118670e-01 -9.67297330e-02 6.22976199e-02 -6.22321591e-02
      -9.19886902e-02 9.77361053e-02 3.86591069e-02 -3.48728895e-02
      1.15740567e-01 -5.18531725e-02 1.67746827e-01 2.28575915e-02
      2.10695472e-02 4.32682503e-03 9.88860987e-03 1.46023244e-01
      2.15736032e-02 -1.11470141e-01 -6.36941642e-02 1.49651870e-01
      2.08037905e-02 1.05484361e-02 3.78258489e-02 1.58019722e-01
      -5.53071462e-02 6.00418933e-02 3.61305252e-02 -6.45181388e-02
      -5.62276021e-02 1.51715681e-01 7.92126134e-02 -1.30510047e-01
      2.92269308e-02 6.78789094e-02 1.05912087e-03 4.20923717e-02
      1.86116733e-02 -8.84158835e-02 9.45141241e-02 -2.57897819e-03
      -2.07377737e-03 -3.78484093e-02 6.15296466e-03 8.20423383e-03
      -3.40735763e-02 -8.23405907e-02 4.24765162e-02 -1.74803548e-02
      1.48304880e-01 4.91404943e-02 1.46534204e-01 -3.30296457e-02
      -1.10731438e-01 2.40331423e-03 -7.59479627e-02 -4.54303622e-02
      -8.25439394e-03 -3.29751745e-02 3.18316594e-02 -3.66172530e-02
      -8.70902091e-03 -6.72214404e-02 2.26760022e-02 2.87590921e-02
      -3.39782722e-02 -3.67751978e-02 6.93987636e-03 -2.15451755e-02
      -1.36242360e-02 -2.81070657e-02 9.30422097e-02 3.59419584e-02
      -1.34395976e-02 -4.09712456e-02 -1.13675026e-02 -1.78613424e-01
      3.98270786e-02 9.00577977e-02 2.29176506e-02 1.16907239e-01
      -5.09979725e-02 -5.85904494e-02 -5.77519163e-02 -5.95524237e-02
      9.73217860e-02 6.43170252e-02 -4.67911661e-02 -6.25778735e-02
      -1.14991263e-01 6.10524416e-02 -5.96900135e-02 4.43003252e-02
      8.29671919e-02 -2.50201132e-02 3.82655822e-02 2.80452091e-02
      1.24461718e-01 3.76127139e-02 -8.85397010e-03 7.38319382e-02
      1.13419876e-01 1.41802639e-01 6.71695843e-02 -3.32411006e-03
      2.12768670e-02 -4.18067314e-02 6.82679042e-02 6.17273673e-02
      3.41207348e-02 -3.03412769e-02 -2.62901216e-04 4.00613174e-02
      2.32622046e-02 -4.58459631e-02 -5.36415875e-02 -6.37961831e-03
      -4.67866436e-02 -5.58426976e-02 1.60617766e-03 6.16791733e-02
      -1.16586827e-01 9.65487808e-02 -4.06359360e-02 2.27566715e-02
      -1.05786081e-02 -1.03004090e-02 2.17185169e-02 -9.43032000e-03
      -5.97036481e-02 -3.92076895e-02 -2.09755190e-02 6.91959187e-02
      7.28585273e-02 -3.57881412e-02 1.62795838e-02 4.11734218e-03
      -5.24906740e-02</_>
    <_>
      -3.25456113e-02 1.75770149e-01 -1.22702606e-01 -5.78392446e-02
      -9.96718705e-02 2.17599496e-01 -7.52924234e-02 -3.93181443e-02
      6.00148141e-02 6.01529516e-02 -1.09274387e-01 -2.70905644e-02
      -3.90333012e-02 5.04057258e-02 1.80026561e-01 4.06921580e-02
      -2.81570386e-02 6.11695796e-02 -4.16293480e-02 -1.43903345e-01
      -1.28566995e-01 1.19393997e-01 -6.62982650e-03 -6.97996542e-02
      -1.49309978e-01 5.71418591e-02 -2.76065856e-01 -1.13205381e-01
      2.90174317e-02 5.52286096e-02 -1.13084920e-01 -9.98610910e-03
      1.25598162e-01 -5.49552999e-02 -2.76372787e-02 1.53800294e-01
      -8.31476077e-02 6.66700676e-02 -4.53889407e-02 2.98496597e-02
      -1.08479761e-01 -2.77007204e-02 -2.40013991e-02 -7.28773847e-02
      8.09601843e-02 3.98256406e-02 -2.34905314e-02 -3.92034799e-02
      6.89726919e-02 -5.52009121e-02 1.70025360e-02 -5.76331578e-02
      -1.02868900e-01 4.43659760e-02 -3.62967514e-02 1.28374889e-03
      -9.08691064e-02 1.60945088e-01 -3.97692546e-02 -2.92594004e-02
      1.43758014e-01 -2.35094950e-02 6.52658055e-04 7.41328150e-02
      -6.55842647e-02 -4.66682650e-02 -1.38453171e-01 -3.71967033e-02
      -8.15619305e-02 -5.24056815e-02 3.35659683e-02 -4.16712761e-02
      -3.00551075e-02 4.21686023e-02 -2.28463765e-02 -1.07543595e-01
      4.29048855e-03 -2.47017685e-02 4.83133197e-02 -3.43450159e-02
      -8.80186856e-02 -2.67484635e-02 2.82791331e-02 2.69873720e-02
      5.38693517e-02 7.21647963e-02 6.18210658e-02 6.25288263e-02
      1.18273504e-01 4.19735871e-02 -4.75435816e-02 9.17956308e-02
      4.75067971e-03 -8.40358622e-03 -9.33341980e-02 7.68499821e-02
      -4.29419130e-02 -3.42060551e-02 -9.93610322e-02 5.67096919e-02
      3.13073732e-02 -2.47580521e-02 -2.37125019e-03 1.51162902e-02
      -9.37963545e-04 -3.55028957e-02 -4.04602475e-02 1.43921413e-02
      -5.96312666e-03 4.32416089e-02 -1.66730713e-02 2.29029190e-02
      3.01364921e-02 3.60115692e-02 -4.05465402e-02 3.72753963e-02
      -4.61023450e-02 -5.36520183e-02 -7.33814910e-02 1.53944893e-02
      6.51868898e-03 -3.24360877e-02 -2.20443029e-02 6.11375691e-03
      3.74562964e-02 -7.93484319e-03 -5.96834607e-02 4.57803812e-03
      -5.16480533e-03 2.11408362e-02 -6.21100850e-02 1.85315423e-02
      -5.71322888e-02 -1.56852715e-02 1.98610239e-02 -4.96052578e-02
      -1.49586098e-02 1.63216460e-02 4.21644486e-02 6.05541607e-03
      -3.92648578e-02</_>
    <_>
      6.06070692e-03 1.75613254e-01 -1.93351462e-01 -1.50655121e-01
      6.87408075e-02 1.42007723e-01 -3.20449695e-02 -7.16796592e-02
      -8.08322206e-02 3.02114971e-02 -7.07315281e-02 -2.57588327e-02
      -1.69328526e-01 2.87072547e-02 -7.79979154e-02 -6.20019734e-02
      -3.78158130e-02 1.48495466e-01 6.08350970e-02 -5.03974892e-02
      -1.03509776e-01 8.07999223e-02 2.40184553e-02 -5.64888045e-02
      4.96054478e-02 1.03005908e-01 -2.54511148e-01 1.70269534e-02
      1.10410027e-01 7.86105078e-03 -9.16011408e-02 -2.20387280e-02
      7.92897493e-02 -4.90330122e-02 1.73663888e-02 3.96895409e-02
      -9.55251157e-02 2.80567389e-02 -1.41707897e-01 4.84062843e-02
      -9.29807276e-02 -1.03179961e-01 -1.11933164e-01 -3.61550450e-02
      -8.52306783e-02 5.99475577e-02 -2.64624804e-02 -8.30894783e-02
      -3.60708460e-02 -7.78059736e-02 9.80225280e-02 1.66611355e-02
      6.77838549e-03 4.76973131e-02 -9.19211209e-02 1.88861359e-02
      -3.95409428e-02 3.96528766e-02 -5.56025617e-02 -3.86364907e-02
      5.53130172e-02 5.05930074e-02 -6.34483993e-02 4.50857170e-02
      -1.78914312e-02 -1.05708301e-01 -1.16783679e-01 -9.33781490e-02
      -1.22778960e-01 -1.52666112e-02 -2.02618353e-02 -9.27551314e-02
      -8.84027928e-02 9.84180123e-02 3.16428170e-02 9.35167149e-02
      -8.03154111e-02 9.62464586e-02 -2.21447609e-02 -3.31381224e-02
      1.35191558e-02 -6.72436953e-02 -4.94365282e-02 1.88217312e-02
      9.03241243e-03 7.19463974e-02 -3.20062824e-02 1.34013101e-01
      -8.29110444e-02 -3.69125865e-02 3.86783816e-02 9.22998413e-02
      5.18157631e-02 3.33265513e-02 1.49759545e-03 -2.27835053e-03
      5.10374196e-02 -5.39424010e-02 -4.40282673e-02 -7.19505325e-02
      -7.07622245e-03 -4.03961129e-02 -2.97317840e-02 -2.09239889e-02
      -5.23442179e-02 1.77361164e-02 4.58725169e-03 -8.06523561e-02
      3.71524841e-02 -1.07146502e-01 -3.17544229e-02 -5.31861149e-02
      5.36845252e-02 -7.24970102e-02 -9.41403881e-02 1.52722979e-02
      -1.09359123e-01 -1.72462631e-02 -1.06793135e-01 2.09963275e-03
      7.65702799e-02 -6.56052008e-02 -5.69483684e-03 2.12303810e-02
      -1.50758913e-02 -2.37755198e-02 -5.31233326e-02 4.08653580e-02
      -3.12878825e-02 -6.02081381e-02 3.82525031e-04 4.52928180e-05
      -3.32947411e-02 8.76859482e-03 -1.58109870e-02 -3.45755443e-02
      -5.48250861e-02 6.80724857e-04 -5.05082682e-02 -5.98335192e-02
      7.19624013e-02</_>
    <_>
      -5.00046946e-02 1.49939582e-01 -8.87528509e-02 -1.16473906e-01
      6.33462146e-02 1.16306439e-01 5.98937087e-03 -4.42161262e-02
      -1.00155160e-01 8.82834196e-02 -1.18476965e-01 -6.18100213e-03
      -1.14173949e-01 3.51814255e-02 -3.81721295e-02 -5.87752834e-02
      -6.06224984e-02 7.51822218e-02 5.38781583e-02 -1.18493140e-01
      -1.18928924e-01 8.55368152e-02 2.57825889e-02 3.04143522e-02
      7.23674670e-02 1.78660080e-01 -3.14872861e-01 5.48346341e-02
      5.45452088e-02 2.29327325e-02 -1.59294873e-01 3.19684781e-02
      1.93826422e-01 -5.40578738e-02 -5.62379435e-02 6.08995482e-02
      -9.59504470e-02 4.65548150e-02 -7.95270130e-02 -1.16446437e-02
      -6.88518137e-02 8.34896881e-03 -1.72807932e-01 -1.06384143e-01
      -8.58301446e-02 -1.09837353e-02 -4.58724722e-02 -3.84477079e-02
      4.58836518e-02 -4.99243662e-03 1.29234716e-01 1.28210261e-02
      8.57501384e-03 4.76659015e-02 -3.74010801e-02 -1.57232001e-01
      -1.68109927e-02 -3.04738758e-03 -4.88547608e-02 3.35515477e-02
      -7.52418954e-03 -2.86741983e-02 -7.45336339e-02 8.16873759e-02
      -4.22641672e-02 -4.36921697e-03 -1.16871290e-01 -7.95530602e-02
      -1.87224790e-01 1.99253249e-04 1.14358984e-01 -5.17847985e-02
      -5.03139757e-03 7.28374943e-02 3.64741907e-02 -7.90645406e-02
      2.63951961e-02 1.51458178e-02 -8.02606493e-02 -4.61788513e-02
      4.53468412e-02 -4.75640334e-02 -7.50745982e-02 7.26405904e-02
      8.38001166e-03 2.17991322e-02 -2.65205577e-02 4.69372831e-02
      6.74757063e-02 2.11972687e-02 -2.46376060e-02 4.71977219e-02
      9.57799032e-02 -1.92468762e-02 -5.01481676e-03 3.88548076e-02
      3.83246541e-02 -1.07192829e-01 -1.26665905e-01 3.21671367e-02
      -2.63406280e-02 -4.93277907e-02 1.24745676e-02 -2.90341545e-02
      5.79219423e-02 4.46389541e-02 -9.40999854e-03 -1.01048149e-01
      -7.29519688e-03 1.02427732e-02 -9.25807431e-02 -5.65629452e-02
      7.70293549e-03 6.38766438e-02 -3.12951882e-03 2.08599474e-02
      -5.65516874e-02 -7.47729614e-02 -3.66754159e-02 8.07961263e-03
      2.70522442e-02 -2.40972415e-02 -4.39025229e-03 -1.56715233e-02
      -4.84189764e-02 -3.74690667e-02 1.83875468e-02 4.15201485e-02
      3.91005799e-02 4.02177731e-03 5.94775341e-02 2.21822504e-02
      4.33838973e-03 6.19002804e-02 5.06111681e-02 -5.93360960e-02
      -1.63748935e-02 2.32057106e-02 -4.33907099e-03 -4.74880002e-02
      -1.13502890e-03</_>
    <_>
      -5.04805483e-02 2.26333544e-01 -1.71522185e-01 -1.83122844e-01
      -4.93668430e-02 1.30387321e-01 -1.08812854e-01 -3.57427225e-02
      -1.65969536e-01 5.97696006e-02 -1.05835319e-01 -1.71847329e-01
      -3.94671224e-03 -9.29661393e-02 -1.60726234e-02 2.32220013e-02
      2.28565242e-02 6.85798302e-02 1.72257759e-02 -4.69955690e-02
      -8.06524530e-02 1.10582605e-01 -7.35090300e-03 -7.12089986e-02
      -7.34290779e-02 1.71635821e-01 -1.49035275e-01 4.45293151e-02
      2.74584685e-02 2.84172893e-02 -8.84135719e-03 5.20439111e-02
      1.44956008e-01 -1.35893047e-01 -6.30075783e-02 1.44587710e-01
      1.24223884e-02 6.22233972e-02 -9.21354517e-02 2.38496009e-02
      -1.06032342e-01 -6.16378225e-02 -1.11541457e-01 2.41098516e-02
      -5.32649122e-02 7.80589357e-02 -2.72829924e-02 -1.29670486e-01
      -5.03506437e-02 -9.10446644e-02 1.15897074e-01 1.42352358e-01
      8.82185027e-02 1.22642303e-02 1.16752693e-02 -1.31833643e-01
      -1.26978636e-01 1.24023236e-01 -6.98598102e-02 -2.47669313e-02
      3.46611887e-02 -9.45857260e-04 -2.25165579e-02 3.92343029e-02
      -1.98940430e-02 1.03647485e-01 -8.85034427e-02 -5.07353060e-02
      -1.11027146e-02 -9.46322270e-03 8.64671320e-02 -7.70677254e-02
      -8.30681100e-02 -8.01581424e-03 8.25438201e-02 -3.08554713e-02
      4.07224260e-02 -1.76784713e-02 2.99306531e-02 -9.24204960e-02
      2.18756087e-02 5.07351086e-02 -6.44809306e-02 5.95617518e-02
      -3.50718051e-02 1.83840338e-02 2.94091422e-02 8.26906785e-02
      -2.17790026e-02 -4.66941223e-02 7.80627429e-02 4.49735560e-02
      3.19596119e-02 3.16029601e-02 4.47584549e-03 -8.18350632e-03
      5.18651232e-02 -6.21002689e-02 -2.46733949e-02 -3.67323076e-03
      -3.50158773e-02 3.18868607e-02 2.65244208e-02 -7.02217629e-04
      -3.04272417e-02 -5.01355380e-02 -3.60044129e-02 -1.04073055e-01
      4.75364598e-03 -1.76453684e-02 -4.29979749e-02 -8.06265995e-02
      8.09410438e-02 1.02460451e-01 -9.65842791e-03 1.42415240e-02
      -5.23936450e-02 -6.38478920e-02 -9.28469151e-02 2.03841180e-02
      8.16549882e-02 -1.23329146e-03 -6.76461458e-02 -3.11488975e-02
      -4.34001870e-02 -1.01845665e-03 4.42521796e-02 6.78256154e-02
      -5.53348707e-03 -2.88679451e-02 4.42775190e-02 3.65701541e-02
      1.91811193e-02 6.47244826e-02 -4.97222021e-02 -7.74211287e-02
      -1.09062847e-02 9.65152532e-02 1.55669283e-02 -1.60744451e-02
      5.36174607e-03</_>
    <_>
      -1.63591176e-01 -9.42808688e-02 -1.74867496e-01 -1.03600137e-01
      -8.40193182e-02 1.89723354e-02 7.07848966e-02 -1.08688563e-01
      -9.47543606e-02 2.51143456e-01 1.96606398e-01 -2.27807667e-02
      -1.04491964e-01 -1.03551976e-01 -1.58396810e-01 9.60838199e-02
      -2.08745450e-02 -2.74699986e-01 -8.82704556e-03 7.23878741e-02
      3.32470611e-02 -6.19682781e-02 9.57026631e-02 -7.11904913e-02
      -1.55485040e-02 1.21276699e-01 -2.75119003e-02 1.20974541e-01
      -1.11789480e-01 6.94041401e-02 1.11417770e-02 5.69642223e-02
      -1.19339123e-01 9.30339247e-02 1.82976965e-02 -4.86272089e-02
      -8.85745436e-02 3.82850915e-02 -1.53491646e-01 -1.76850855e-02
      -1.59234777e-01 -1.04550101e-01 9.80637148e-02 -2.80486867e-02
      -1.82272941e-02 -5.33602908e-02 -4.21995707e-02 1.63283333e-01
      4.95077074e-02 -5.86932749e-02 -5.80237508e-02 1.71494577e-02
      6.26765117e-02 1.64422393e-01 5.79588600e-02 6.06071837e-02
      1.23749502e-01 -3.05462684e-02 6.05521426e-02 -1.32846817e-01
      -1.78087167e-02 -3.22856829e-02 2.81741377e-02 2.85447519e-02
      7.76422322e-02 1.66970611e-01 5.71147017e-02 -9.37780142e-02
      4.66456115e-02 -4.76855412e-02 4.79171760e-02 -5.99439405e-02
      3.25940959e-02 -1.12999240e-02 1.07000999e-01 -1.53194349e-02
      4.49986868e-02 -7.16562709e-03 -1.78304203e-02 -1.01294704e-02
      -8.28725658e-03 -2.33541336e-02 -3.60597041e-03 -1.12725394e-02
      -2.37011816e-02 3.87766361e-02 1.53531283e-02 -8.26685131e-02
      -1.55491501e-01 3.56316827e-02 9.50770900e-02 -6.39352798e-02
      -6.38697967e-02 -2.89594214e-02 -2.40824576e-02 5.80234267e-02
      -6.00108951e-02 -1.10332351e-02 -7.37912506e-02 -8.82624909e-02
      -5.23514934e-02 2.43716016e-02 3.31973657e-02 -2.32017748e-02
      3.43243405e-02 -6.52174875e-02 -2.84974258e-02 7.83675164e-02
      3.68984882e-03 -5.51519878e-02 -2.94358134e-02 3.71850431e-02
      3.57823931e-02 3.70059945e-02 7.58282468e-03 -8.82956609e-02
      -5.29691726e-02 4.89744991e-02 -5.84043078e-02 -4.85222042e-02
      4.77645434e-02 5.65237440e-02 -4.63464204e-03 1.30687014e-03
      -9.60890725e-02 2.96002720e-02 -2.21104380e-02 1.91478003e-02
      -4.36824523e-02 -6.52595563e-03 -1.58161577e-02 1.08920401e-02
      -8.16701874e-02 2.12255865e-02 -3.88655849e-02 -3.04314122e-02
      3.08865476e-02 -3.34817506e-02 -2.37063728e-02 5.18721528e-02
      2.71150339e-02</_>
    <_>
      -2.49861091e-01 -1.64524898e-01 -1.89455226e-01 -8.29716995e-02
      -6.67264760e-02 -2.18610540e-02 1.80076882e-02 -8.97178203e-02
      3.59518250e-04 1.46567196e-01 7.35705197e-02 6.39570430e-02
      -1.15555018e-01 -5.05541191e-02 -1.04836293e-01 7.28235841e-02
      -7.17181414e-02 -1.02252588e-01 -6.40234873e-02 -2.46143132e-03
      1.56451762e-01 4.78656702e-02 2.13228278e-02 -9.12882201e-03
      -6.10711873e-02 1.13992028e-01 7.50394212e-03 1.43744975e-01
      -1.33863008e-02 1.45424958e-02 3.53446044e-02 5.25254384e-03
      -3.96446995e-02 1.30673513e-01 1.00681990e-01 -1.01920746e-01
      -1.00935034e-01 -8.85459781e-02 -1.39387429e-01 1.07543118e-01
      -1.55626843e-02 -7.62178302e-02 4.92247101e-03 1.15111163e-02
      -2.43823957e-02 1.12394370e-01 6.96013961e-03 7.91115165e-02
      -1.52936103e-02 -2.71983985e-02 -1.77411791e-02 1.18720047e-01
      -2.59869359e-02 4.46252711e-02 -6.70955777e-02 4.75463159e-02
      9.50398482e-03 -6.22776970e-02 -2.00288817e-02 -1.97735563e-01
      2.68399119e-02 5.19654118e-02 5.58033139e-02 2.95177922e-02
      -4.55508195e-03 1.53119683e-01 2.82991193e-02 -3.58772911e-02
      8.09815899e-02 6.48431256e-02 1.98289342e-02 -1.92446243e-02
      1.75687801e-02 9.40246284e-02 5.17835319e-02 1.60613712e-02
      5.07751964e-02 1.20647080e-01 -5.01892008e-02 5.26004657e-02
      -2.31084153e-02 3.93997580e-02 7.95910656e-02 3.01089324e-02
      -1.20097764e-01 -4.78160940e-02 2.56325118e-02 5.48875816e-02
      -1.06484666e-01 9.15287659e-02 9.15467516e-02 -6.94602802e-02
      -1.35914506e-02 5.72856404e-02 -3.79721820e-02 2.65617929e-02
      4.29441258e-02 7.76514504e-03 -6.97810575e-02 -3.92114334e-02
      -1.24890745e-01 -2.16352362e-02 -1.98079683e-02 -1.78760812e-02
      1.92007590e-02 -8.11265707e-02 -4.94598970e-02 7.63189867e-02
      -2.37279143e-02 3.53701226e-02 -1.14473663e-02 -8.18017051e-02
      -2.52600666e-02 1.36804014e-01 -6.22940958e-02 -7.71790519e-02
      7.93623999e-02 -3.66482958e-02 -5.95227219e-02 6.09547980e-02
      5.10632619e-02 -5.36480062e-02 -3.52585986e-02 1.34151010e-02
      -1.25627533e-01 -3.87732647e-02 2.53936742e-02 -3.17944176e-02
      7.63864303e-03 3.49689741e-03 9.24106920e-04 -5.42833703e-03
      1.05525136e-01 -2.53325086e-02 -2.79262885e-02 6.18556812e-02
      -9.83470306e-02 -2.91669406e-02 -2.18177848e-02 2.51456387e-02
      5.72509319e-03</_>
    <_>
      -2.09593341e-01 -1.54429317e-01 -2.49348789e-01 -7.40032867e-02
      -6.97856545e-02 1.16838634e-01 2.00663544e-02 -3.87793332e-02
      -9.82442573e-02 1.48884475e-01 1.64382741e-01 1.00125419e-02
      -1.02614768e-01 -7.58278146e-02 -1.11310445e-01 1.05898686e-01
      -1.40593993e-03 -1.83875427e-01 -5.47513217e-02 7.76243880e-02
      3.83503214e-02 -3.96244451e-02 4.64194305e-02 -1.35555580e-01
      -3.24157737e-02 1.53499871e-01 -2.46120654e-02 1.40497848e-01
      -1.41492859e-01 4.53918464e-02 -4.74533364e-02 -3.97645906e-02
      -1.19193047e-01 8.97302255e-02 3.22124809e-02 -3.68741304e-02
      -4.60854582e-02 -1.33315008e-02 -1.18284889e-01 4.62840274e-02
      -5.10332212e-02 4.46205512e-02 -1.16106472e-03 -3.76781337e-02
      4.47573327e-02 7.10153654e-02 -8.14273283e-02 -3.50837521e-02
      -2.64742952e-02 -1.73356503e-01 -4.13717423e-03 9.69029516e-02
      -9.45042148e-02 8.30335468e-02 4.02591527e-02 -6.06567180e-03
      3.97259630e-02 6.72953799e-02 3.88384573e-02 -4.31512631e-02
      1.13206945e-01 -2.13750582e-02 2.06067599e-02 4.91881520e-02
      1.59219932e-02 1.47792637e-01 6.55031726e-02 -1.26583993e-01
      3.49892937e-02 5.38659804e-02 -1.09873499e-05 -2.62433346e-02
      1.33817226e-01 1.18993647e-01 1.85173482e-01 2.49228291e-02
      -3.09150238e-02 8.35480019e-02 -4.46045287e-02 4.75693420e-02
      -1.65705830e-02 7.33881025e-03 1.14510871e-01 -5.16605154e-02
      -5.41773774e-02 2.85452809e-02 1.25748245e-02 -4.78790477e-02
      -6.78553134e-02 9.50521305e-02 1.18811011e-01 -9.48717520e-02
      -1.05475960e-02 -7.14338943e-02 -1.04905507e-02 1.38124134e-02
      3.87481898e-02 4.50845137e-02 -2.40873396e-02 -5.16439080e-02
      -1.42071471e-01 2.77051702e-02 -2.56335046e-02 -4.10929918e-02
      -6.28854856e-02 -4.70125601e-02 2.32889503e-03 3.44280154e-02
      -1.38652194e-02 -7.23614171e-03 1.97425783e-02 -1.66648999e-02
      -2.14620028e-03 6.30827472e-02 -7.11537153e-02 -5.48867695e-02
      5.12005948e-02 1.07050966e-02 -1.74744166e-02 7.15476945e-02
      7.31720924e-02 -5.58896363e-02 -2.60260347e-02 -8.28846171e-02
      -6.23000935e-02 4.73316833e-02 -4.75273505e-02 -5.90352230e-02
      -1.84070319e-02 -2.23368332e-02 3.94941792e-02 1.29928272e-02
      1.25680622e-02 -2.91544311e-02 1.60097796e-02 1.39789522e-01
      -4.54174168e-02 2.97866333e-02 -2.47069821e-02 5.18560484e-02
      3.98919918e-02</_>
    <_>
      -8.32383856e-02 -2.39321336e-01 -2.74557233e-01 -1.53907552e-01
      7.75749981e-02 1.24704793e-01 9.43638459e-02 8.20917934e-02
      -6.80062696e-02 1.11758085e-02 3.99805084e-02 2.27229729e-01
      9.39964429e-02 -2.75126845e-01 2.10588276e-01 -8.93400013e-02
      1.61272123e-01 8.26682821e-02 2.16278546e-02 -7.21597821e-02
      -4.04896513e-02 8.41994397e-03 -4.63333465e-02 -6.66260198e-02
      6.70653582e-02 1.97370420e-03 -4.49331217e-02 1.92957427e-02
      2.66510490e-02 7.57261515e-02 2.75738700e-03 -1.02989875e-01
      -7.07036164e-03 -4.50133607e-02 -3.99035998e-02 -1.42119331e-02
      6.64025592e-03 -7.46103078e-02 -5.96853085e-02 -6.91073909e-02
      -3.14494632e-02 2.14258842e-02 -4.30312827e-02 -3.08972225e-02
      2.99242344e-02 -3.85003611e-02 -2.11560912e-02 -2.83915852e-03
      5.64982295e-02 1.15200259e-01 5.69922999e-02 -8.38936195e-02
      -1.16981879e-01 4.99209426e-02 9.43749025e-02 6.76048221e-03
      6.75734058e-02 6.28312230e-02 -2.93677021e-02 4.03849706e-02
      -5.28159589e-02 1.05182432e-01 2.18949579e-02 1.38076460e-02
      -6.67823330e-02 -4.91868928e-02 -4.15142700e-02 -3.98906022e-02
      3.07089183e-02 -7.80498981e-02 8.24939366e-03 -1.75393913e-02
      -3.77092324e-02 -6.93174973e-02 -3.75633836e-02 4.44145277e-02
      1.00934384e-02 5.98387271e-02 -5.60347997e-02 6.74053282e-02
      2.28934847e-02 2.95052696e-02 1.68635119e-02 5.85031286e-02
      -4.65936624e-02 1.47293406e-02 -1.46682531e-01 -5.88546041e-03
      -8.02261233e-02 -2.27985196e-02 -3.05696465e-02 6.52837381e-02
      -5.49166091e-03 -4.35481519e-02 -1.71750672e-02 -6.68490976e-02
      -2.78578252e-02 -1.86949577e-02 1.06026605e-02 -3.40000764e-02
      9.07655731e-02 8.37104991e-02 -1.69216897e-02 7.95460679e-03
      -2.14746315e-02 3.45412008e-02 4.00505289e-02 -1.70600135e-02
      2.31727958e-02 -4.05097147e-03 -1.41758611e-02 8.67898483e-03
      -2.82735396e-02 -5.34771867e-02 7.08957911e-02 1.07670732e-01
      4.92369756e-02 4.11116034e-02 -1.86781883e-02 6.44261809e-03
      1.77770033e-02 -1.84296258e-02 3.45328450e-02 -3.93505171e-02
      -6.03008382e-02 4.92008263e-03 7.05501363e-02 -7.99216628e-02
      4.05865796e-02 -6.64630234e-02 -8.79055168e-03 -8.86427686e-02
      -3.33533213e-02 8.57693158e-05 -2.08749734e-02 2.56001931e-02
      4.69066277e-02 3.74959828e-03 3.43404636e-02 4.85032611e-02
      5.19993082e-02</_>
    <_>
      -1.16440162e-01 -1.09643757e-01 -2.43407264e-01 -1.23448581e-01
      1.11491099e-01 9.61296186e-02 -8.26570541e-02 2.11344119e-02
      -2.60945149e-02 -3.14265639e-02 7.21045136e-02 1.42318726e-01
      -2.15833232e-01 -8.51864144e-02 1.35832012e-01 -7.07667395e-02
      -1.30600315e-02 1.55768516e-02 3.91928181e-02 -3.70077044e-02
      -3.50660384e-02 2.05148924e-02 3.23585756e-02 -3.07059083e-02
      -7.57782981e-02 1.47824083e-02 -8.72509405e-02 8.73289630e-02
      5.77436527e-04 6.57330081e-02 -8.62777233e-02 -8.23848918e-02
      -4.41046320e-02 1.59382403e-01 2.91592032e-02 -9.34017897e-02
      8.41564313e-02 -3.64629366e-02 -3.14841717e-02 1.15760891e-02
      -3.99264395e-02 1.82357058e-02 6.75882492e-03 1.06541868e-02
      -1.45970401e-03 6.20843023e-02 -3.63602974e-02 -2.08388530e-02
      4.18200605e-02 3.82582620e-02 9.10805017e-02 3.70746590e-02
      -1.14804074e-01 -3.51084881e-02 7.04613188e-03 7.80693516e-02
      4.23977301e-02 6.98851719e-02 -1.12060338e-01 3.32582854e-02
      -6.37138709e-02 4.11913060e-02 3.97961549e-02 7.69797564e-02
      5.19103631e-02 7.21603185e-02 8.55309889e-02 -5.59991002e-02
      4.99883033e-02 -6.47390187e-02 1.68220416e-01 -3.76462787e-02
      5.29927239e-02 -5.63263185e-02 2.93371901e-02 -1.48264533e-02
      3.76690738e-02 4.05218415e-02 1.34476656e-02 8.76806974e-02
      -2.07778923e-02 -4.92058955e-02 6.04709248e-06 4.68939692e-02
      1.00840360e-01 -1.22987054e-01 -3.49272415e-02 3.18663828e-02
      -2.00036205e-02 5.46663534e-03 4.10940163e-02 1.46121144e-01
      8.48569497e-02 -1.65880285e-02 -2.98158266e-02 -1.13555528e-01
      -1.63305737e-02 6.29214048e-02 2.76946723e-02 -1.05898455e-01
      -7.03920238e-03 -2.68820729e-02 -6.36766031e-02 -3.66219804e-02
      -8.21222961e-02 9.60546657e-02 8.11341777e-03 -9.97259468e-02
      2.94843335e-02 -3.11382934e-02 1.55467005e-03 2.22681686e-02
      -6.64938465e-02 -8.18593577e-02 2.43645888e-02 4.10930365e-02
      4.62718494e-02 9.55555215e-02 8.76813978e-02 -7.25255683e-02
      1.53635651e-01 1.26221329e-02 -2.86300071e-02 -9.83970612e-02
      -2.16935053e-02 8.26746747e-02 1.95536762e-02 -6.05437793e-02
      -3.21141370e-02 1.81799419e-02 6.89210463e-03 6.43734680e-03
      4.38292511e-03 1.16591379e-01 -1.29382499e-02 -4.89303166e-05
      4.46019210e-02 -2.05048695e-02 5.17342910e-02 3.22709717e-02
      -2.17373502e-02</_>
    <_>
      -1.51335374e-01 -1.71536297e-01 -2.76897997e-01 -1.45234302e-01
      1.15317740e-01 8.27608407e-02 2.48628855e-01 9.59563255e-02
      -5.69911860e-02 1.35170817e-01 -4.25324067e-02 4.14544404e-01
      9.07400772e-02 -2.15230629e-01 1.18266605e-01 -1.19844764e-01
      9.07128155e-02 2.31079981e-01 3.88795659e-02 -3.73493135e-03
      -3.62861380e-02 -8.93220827e-02 4.89637777e-02 5.52258715e-02
      5.46313822e-02 -7.29941577e-02 -5.77106513e-03 -8.24160203e-02
      6.90479875e-02 4.09388691e-02 -2.01620231e-03 -1.14678089e-02
      -1.30509138e-01 -6.05893582e-02 7.83876702e-02 1.87546536e-02
      4.81414050e-02 -5.11989892e-02 -4.15833816e-02 -1.94893219e-02
      -3.01782135e-02 -1.06694298e-02 -2.24473514e-02 5.81950229e-03
      4.42034751e-02 -3.58857475e-02 1.48642650e-02 -7.02495202e-02
      1.29024182e-02 4.24959697e-02 -4.24494334e-02 1.47098489e-03
      -9.25272405e-02 1.65298898e-02 5.09121977e-02 1.76150016e-02
      3.25298533e-02 9.81213823e-02 1.96364596e-02 -8.23836625e-02
      3.20727341e-02 -2.70070601e-02 2.48062387e-02 3.74791510e-02
      -4.51346003e-02 -7.60470692e-04 -4.76802848e-02 1.52072879e-02
      -3.36326994e-02 9.61910561e-03 5.46971448e-02 -5.90141937e-02
      7.37933721e-03 -6.90892190e-02 1.41234780e-02 8.48593749e-03
      2.01615207e-02 -9.17261466e-02 2.14629080e-02 -2.18431689e-02
      -2.36002021e-02 -5.67276925e-02 -2.59045139e-02 1.43226683e-01
      2.18314137e-02 9.97785330e-02 -1.21707208e-02 1.02816641e-01
      3.89615372e-02 3.29606943e-02 -4.15535383e-02 -3.91616262e-02
      7.86209777e-02 3.47222132e-03 4.59251925e-02 4.83245030e-02
      -5.99471629e-02 -1.15854412e-01 -3.41946096e-03 -1.18700042e-01
      1.16928788e-02 2.81927944e-03 -8.52704421e-03 -1.54289661e-03
      -2.18972247e-02 4.72148433e-02 -3.75540033e-02 -9.20982193e-03
      7.52369165e-02 2.33125240e-02 2.95121558e-02 -3.46837863e-02
      3.41270380e-02 -1.21596612e-01 -2.91437004e-02 3.44225653e-02
      2.47850120e-02 4.72668111e-02 -2.30189897e-02 -7.73056224e-02
      2.19041063e-03 1.84851401e-02 -2.75360234e-02 -9.76197720e-02
      2.04978790e-02 -4.39834297e-02 1.32703939e-02 -3.79334786e-03
      -7.77209830e-03 5.01388870e-02 -3.63454293e-03 -1.38312029e-02
      1.91933289e-02 1.49959754e-02 -1.20655261e-02 8.02075714e-02
      -1.92066953e-02 -2.31843907e-02 3.16976309e-02 -2.19716039e-02
      -4.19206023e-02</_>
    <_>
      -2.01134950e-01 -1.44814819e-01 -3.24252933e-01 -1.33828208e-01
      7.74493441e-02 1.30043207e-02 2.07415253e-01 5.96652217e-02
      -5.97166978e-02 6.91572279e-02 5.14210984e-02 1.01647370e-01
      -6.74653724e-02 -9.34698060e-02 1.13462634e-01 2.67388020e-02
      1.49784282e-01 -2.42754593e-02 -1.25654070e-02 4.30398062e-03
      4.70918305e-02 -5.52701689e-02 4.55129109e-02 -1.16175637e-01
      -6.44310191e-02 -1.88129563e-02 -2.27273372e-03 4.37759534e-02
      -5.00488877e-02 1.04743913e-01 9.02185515e-02 2.22182721e-02
      -9.00822282e-02 -4.05041799e-02 8.93386602e-02 -1.17172390e-01
      9.49181318e-02 2.03197058e-02 9.78886336e-02 -8.76009557e-03
      -4.18239161e-02 -4.38969098e-02 -9.07050446e-02 -6.41633756e-03
      1.64272059e-02 -7.16660395e-02 -1.32339578e-02 -8.49425867e-02
      3.54030728e-02 1.08969435e-01 1.25859275e-01 -6.99240193e-02
      1.66087039e-02 4.21237806e-03 -2.47064210e-03 -1.03901193e-01
      4.17803749e-02 4.73646745e-02 6.89686537e-02 2.37716418e-02
      -8.42662379e-02 3.64114009e-02 -5.84499240e-02 -5.56530170e-02
      -5.78497052e-02 9.29685086e-02 8.49212259e-02 -3.13456357e-02
      -3.10901813e-02 -9.80015099e-02 1.52196378e-01 -1.02417372e-01
      7.10637346e-02 -1.05991192e-01 3.44395451e-02 3.28167416e-02
      -3.19248289e-02 -8.15574601e-02 -4.00874391e-02 9.33576822e-02
      -2.87315603e-02 4.21884432e-02 -1.94463879e-02 7.32872961e-03
      2.98609491e-02 5.74679933e-02 7.30872853e-03 -4.93133552e-02
      -3.00362296e-02 -2.85644159e-02 -5.98171763e-02 1.29951220e-02
      4.97536361e-03 -6.41654730e-02 -1.29444227e-01 -6.68384656e-02
      6.88042492e-02 2.20304672e-02 3.09509523e-02 1.65067911e-02
      -9.10669938e-02 3.22123393e-02 -3.08666937e-02 -1.78986080e-02
      -6.09369902e-03 1.18082359e-01 9.68581736e-02 4.92303409e-02
      5.07104583e-02 6.00891486e-02 -3.67368497e-02 3.39335464e-02
      -2.35703215e-02 -1.35383280e-02 -5.60941957e-02 8.05535242e-02
      -2.18662880e-02 1.45638123e-01 -1.92918200e-02 -2.76605319e-02
      -1.27798356e-02 7.96516165e-02 -8.57777148e-03 -1.28295034e-01
      5.70944063e-02 5.36991507e-02 5.70093235e-03 -1.48551315e-02
      1.17228525e-02 9.69734192e-02 1.81194842e-02 5.06990142e-02
      -8.59603286e-03 5.93715273e-02 5.48645630e-02 4.03340906e-02
      8.29570666e-02 -2.62855664e-02 -8.46837237e-02 -2.56745983e-02
      1.03909522e-02</_>
    <_>
      -1.24130510e-01 -1.01823449e-01 -1.95067257e-01 -8.52435678e-02
      1.32960603e-01 -6.65320009e-02 1.59782127e-01 3.50211971e-02
      -1.17593259e-03 1.07694991e-01 6.10638298e-02 9.82768741e-03
      -9.61071327e-02 -2.01749206e-02 7.37835467e-02 -8.31609070e-02
      5.33219986e-02 -7.21615776e-02 -4.18901257e-02 -1.43956646e-01
      1.74965467e-02 6.18854985e-02 8.13808367e-02 -1.42038823e-03
      -3.00779827e-02 6.32191375e-02 -1.40517622e-01 1.83672935e-01
      -1.29494861e-01 5.64648546e-02 -1.69483989e-01 -9.08501297e-02
      1.29296094e-01 6.66837767e-02 -1.03960566e-01 -1.40117388e-02
      -7.71152647e-03 3.72544602e-02 -1.13681152e-01 -1.10487573e-01
      -5.39058112e-02 5.23266708e-03 -1.57335624e-01 -8.90108868e-02
      3.26833799e-02 4.47978489e-02 2.87758149e-02 -7.29088858e-03
      8.84045381e-03 6.30811676e-02 -1.02156423e-01 6.63924450e-03
      -1.45518780e-01 -7.46369213e-02 -9.23433751e-02 -4.18482423e-02
      -2.02330388e-02 -9.40071493e-02 -8.35384801e-03 6.30154833e-02
      -1.13689741e-02 1.06841683e-01 -1.38406396e-01 -6.80337474e-02
      -8.66763219e-02 -2.95161791e-02 -5.02379499e-02 2.03108229e-02
      -4.59682308e-02 -4.21857573e-02 1.55178644e-02 -9.92305353e-02
      2.97219101e-02 1.00438828e-02 -1.15239300e-01 -2.88892668e-02
      2.44387500e-02 4.89156619e-02 -9.44471508e-02 1.66660976e-02
      -8.07294548e-02 -8.02701488e-02 1.03876218e-01 -1.76751837e-02
      -8.49961396e-03 -1.05960760e-02 -6.08573109e-02 -8.80129263e-02
      -4.50767241e-02 3.21891196e-02 -1.16111830e-01 2.19426341e-02
      7.79287815e-02 -9.59604084e-02 -7.35396370e-02 -1.68651924e-01
      -5.03491759e-02 8.70266277e-03 -6.21586815e-02 -6.62807748e-02
      3.83891910e-02 5.77048846e-02 5.19959675e-03 1.68564450e-02
      -4.40427549e-02 -1.84212923e-02 -1.50351241e-01 -3.35671641e-02
      -3.70357260e-02 -3.94330509e-02 2.68480200e-02 9.19017121e-02
      -3.97967771e-02 -4.16360609e-02 -3.07463463e-02 -2.51663215e-02
      -1.61317531e-02 4.32181284e-02 5.86919747e-02 3.05974633e-02
      -2.49111783e-02 5.06356210e-02 -3.80483310e-04 -1.05392441e-01
      -7.23715425e-02 -3.11966427e-02 4.56902869e-02 -1.02132283e-01
      -4.40486765e-04 1.03419060e-02 3.32481898e-02 -5.97061142e-02
      2.56048571e-02 -3.80851850e-02 1.99678224e-02 1.04129344e-01
      1.29315376e-01 -2.70027258e-02 -9.25226659e-02 1.27538922e-03
      -2.67041773e-02</_>
    <_>
      -8.76181871e-02 -1.59643933e-01 -2.67573297e-01 -1.55713722e-01
      8.19775909e-02 -6.65373681e-03 1.94365576e-01 9.42711458e-02
      -1.31469131e-01 6.70864284e-02 4.73170765e-02 1.00996971e-01
      1.90844219e-02 -1.44512817e-01 6.04969822e-02 -4.45351712e-02
      1.31053939e-01 -3.16097140e-02 -7.34224245e-02 -1.73790663e-01
      -2.43007820e-02 3.12365647e-02 5.24953976e-02 -5.81735671e-02
      4.63832133e-02 -8.71180966e-02 -3.19229960e-02 1.25768170e-01
      -4.02727015e-02 5.22931628e-02 -7.55073130e-02 -1.17698379e-01
      6.13853522e-02 -1.05956420e-01 -2.21211985e-02 -2.43931953e-02
      1.39190920e-03 -3.84228341e-02 -1.07188702e-01 -7.32787997e-02
      -6.52067289e-02 4.62155454e-02 -7.98783824e-02 2.29743402e-02
      7.41063803e-02 -1.46815078e-02 -1.70694627e-02 1.70192739e-03
      4.15752120e-02 -1.60173569e-02 2.63511250e-03 8.35975185e-02
      -9.14062709e-02 -4.00542021e-02 -8.45325142e-02 5.00190146e-02
      3.57638299e-03 4.00664881e-02 -3.77226323e-02 4.46221940e-02
      3.00851278e-02 7.35900924e-02 -3.91867608e-02 3.24156955e-02
      -1.54294735e-02 -9.98318419e-02 -4.10479084e-02 1.75394360e-02
      3.00875064e-02 3.68706472e-02 3.52171063e-02 -8.16857889e-02
      1.20644115e-01 -2.59408634e-02 -5.63136414e-02 -1.05013046e-02
      2.28280798e-02 6.31728023e-03 -1.00253120e-01 1.47336170e-01
      -1.12709470e-01 2.55990028e-02 8.40687603e-02 -1.48291551e-02
      -3.01693641e-02 4.23653945e-02 2.57881708e-03 -1.38306141e-01
      2.14672703e-02 2.84492150e-02 4.57977690e-03 1.06005669e-01
      -4.11328906e-03 -1.18190020e-01 -7.70014599e-02 -6.36415854e-02
      3.23582254e-02 -5.64846918e-02 -1.09061167e-01 -1.70187503e-02
      5.18654138e-02 1.16250485e-01 -8.70857090e-02 -1.21264406e-01
      -6.49222657e-02 1.83936693e-02 -1.62777286e-02 -9.20831785e-03
      5.32685742e-02 -9.44067314e-02 9.15885046e-02 5.14912196e-02
      -2.87358984e-02 3.36632915e-02 8.75165015e-02 3.82172130e-02
      2.52458304e-02 7.62094930e-02 3.47922370e-02 8.05708766e-02
      -2.30822861e-02 -4.59805168e-02 -2.38883570e-02 -2.72250772e-02
      -6.53692409e-02 1.31530892e-02 1.42209306e-01 -1.01515383e-01
      -1.06052216e-02 -9.44552124e-02 9.28979218e-02 -2.47410052e-02
      2.28287894e-02 -1.95486266e-02 1.25745321e-02 -1.53647866e-02
      7.68740103e-02 -2.39055464e-03 -1.92304552e-02 -2.01238263e-02
      3.43445204e-02</_>
    <_>
      -1.39683679e-01 -2.08529323e-01 -2.71001220e-01 -1.85699984e-01
      1.50468796e-02 1.68375775e-01 1.04873851e-01 6.85354844e-02
      -7.26953000e-02 1.18670180e-01 9.19843540e-02 3.72418195e-01
      1.60297200e-01 -3.00101250e-01 2.52836868e-02 -9.22066867e-02
      -4.02259827e-02 4.15069871e-02 1.30755035e-02 -6.68430422e-03
      -3.92096825e-02 2.26318929e-02 7.40296245e-02 4.02264968e-02
      5.28688468e-02 -7.58893229e-03 -1.00951649e-01 8.38620141e-02
      2.54528299e-02 -2.71518249e-02 5.89646325e-02 9.00150463e-03
      1.44391442e-02 -9.08358693e-02 -8.44834372e-02 4.41206247e-02
      -8.17597583e-02 6.02756776e-02 -8.26080516e-02 -4.66300473e-02
      -1.11538544e-01 4.56373468e-02 9.34787318e-02 -2.17275638e-02
      2.26739254e-02 -9.63582247e-02 2.88687199e-02 7.36914203e-02
      -9.70856994e-02 2.44726315e-02 -5.55377938e-02 2.32521705e-02
      5.24223037e-02 1.51425358e-02 -4.72779945e-03 3.57690267e-02
      -1.96130220e-02 -4.18745913e-02 1.57001968e-02 6.44060597e-02
      -7.94432781e-05 3.21077928e-02 -6.76817074e-02 5.79571389e-02
      -7.31499195e-02 1.71993598e-02 -5.25440685e-02 -1.45730004e-02
      4.63218801e-02 2.74820738e-02 1.78496093e-02 1.35762198e-02
      9.05422643e-02 9.13017616e-02 6.77970285e-03 -1.62314866e-02
      4.06959094e-02 2.48512588e-02 1.09614860e-02 -2.68962253e-02
      -3.36908773e-02 1.55774616e-02 8.82187709e-02 -3.45498882e-02
      -6.24814117e-03 6.40902445e-02 -3.50448638e-02 -6.88156262e-02
      -7.33023603e-03 -6.16980297e-03 9.60960798e-03 -5.10552041e-02
      -1.82383589e-03 -2.15071384e-02 -4.65655811e-02 -7.49434531e-03
      -4.73629730e-03 -3.77911031e-02 3.59349102e-02 5.39931953e-02
      -5.57102673e-02 6.85791746e-02 4.77549173e-02 2.23525129e-02
      5.48931956e-03 -5.57971140e-03 -2.76828688e-02 7.44408695e-03
      2.55616680e-02 -5.92059046e-02 9.14681423e-03 5.87078221e-02
      -1.73363518e-02 1.27572805e-01 8.23352709e-02 3.63211259e-02
      1.94314212e-04 8.15886781e-02 -7.89377168e-02 -2.32328717e-02
      -6.75175637e-02 -5.79181612e-02 9.42801759e-02 4.83854972e-02
      -1.48648741e-02 3.53539661e-02 -4.18853648e-02 3.13153490e-02
      -2.68271728e-03 -9.70021635e-02 -9.96614620e-03 -4.87446189e-02
      1.79002825e-02 -3.34788449e-02 9.71450582e-02 -4.15058583e-02
      5.24213091e-02 6.06517904e-02 4.60305531e-03 1.84045790e-03
      -2.19771937e-02</_>
    <_>
      -1.65863663e-01 -2.14654624e-01 -2.76566625e-01 -1.62709191e-01
      2.75484119e-02 1.42216340e-01 1.64630532e-01 1.12561665e-01
      -1.26847595e-01 1.31626248e-01 3.60114276e-02 4.90340829e-01
      1.00046918e-01 -3.19113463e-01 -1.60392467e-02 -1.93691015e-01
      2.36610025e-02 1.52423725e-01 8.06964040e-02 -8.61207247e-02
      -4.52999212e-02 8.49985033e-02 1.01121413e-02 5.12546375e-02
      6.26665875e-02 -8.08294117e-02 -4.43908274e-02 -5.61468266e-02
      1.58273764e-02 -2.51110289e-02 1.06826648e-01 4.88318950e-02
      -1.34087298e-02 -1.10923760e-01 -5.29344566e-02 6.44442961e-02
      -8.82461574e-03 2.88329571e-02 -2.19075731e-03 -1.24852359e-02
      -5.40779158e-02 4.02420759e-02 3.07399966e-02 -4.76224646e-02
      1.29106157e-02 -8.58638659e-02 1.83888134e-02 3.94887403e-02
      -5.77881746e-02 -4.03783582e-02 -6.56903535e-02 2.70587415e-03
      5.63010499e-02 2.15174095e-03 -1.71143818e-03 2.56038215e-02
      -6.38531242e-03 -1.81780253e-02 1.14115784e-02 -2.43622828e-02
      4.73843105e-02 -3.98625322e-02 7.47490348e-03 1.84788723e-02
      7.54146511e-03 -1.06212245e-02 -2.29301732e-02 3.01364134e-03
      -1.40396459e-02 3.32524888e-02 2.83265971e-02 4.45335312e-03
      -4.26051244e-02 5.41478209e-02 -6.65679993e-03 -7.34368786e-02
      -6.48469897e-03 -8.46666023e-02 1.24769472e-02 -1.21607147e-02
      2.66244095e-02 1.97319631e-02 2.35073897e-03 3.95720266e-02
      -1.32315625e-02 -1.36718359e-02 7.22463010e-03 -3.60001437e-02
      -9.41474363e-02 -4.75976791e-04 2.14933343e-02 -9.30841416e-02
      -1.68798491e-02 2.23331340e-02 -4.59437370e-02 4.91504781e-02
      -6.65198872e-03 -1.00798970e-02 1.04967458e-02 5.45841828e-03
      -5.16108461e-02 4.09380591e-04 -2.39078421e-02 4.02096063e-02
      -3.01785842e-02 -2.48460695e-02 -4.88782153e-02 1.27312345e-02
      -8.17565247e-03 -3.75138111e-02 6.75374344e-02 -1.05405627e-02
      -2.64826026e-02 1.60139594e-02 -7.89203048e-02 4.35894243e-02
      -3.04648303e-03 -2.50965152e-02 -2.87676938e-02 6.02001287e-02
      1.41337197e-02 -6.63478719e-03 -2.78595975e-03 3.45390253e-02
      -7.17646442e-03 5.81166036e-02 -9.66698304e-03 4.88538370e-02
      2.07736269e-02 3.55703733e-03 -5.26750311e-02 1.34374555e-02
      1.05910627e-02 -1.01421662e-02 -4.27067317e-02 -3.79291177e-03
      -1.12779923e-02 2.36849854e-04 8.71771947e-03 -1.00112986e-02
      -1.34599200e-02</_>
    <_>
      -1.56061828e-01 -2.02805862e-01 -2.88996816e-01 -1.66666552e-01
      3.49588208e-02 8.68296325e-02 1.98460296e-01 1.46628454e-01
      -6.98017478e-02 7.52809644e-02 -4.43519540e-02 4.34579402e-01
      1.39953285e-01 -2.19250530e-01 1.72260366e-02 -1.00082889e-01
      -5.21039870e-03 1.73681945e-01 7.22643659e-02 -1.97938159e-02
      -2.00840309e-02 1.11168867e-03 6.17598966e-02 9.50293988e-02
      1.18953995e-01 4.35646903e-03 -1.11558668e-01 -5.69092445e-02
      4.24331985e-02 7.86393601e-03 3.83054614e-02 3.57744694e-02
      1.18349064e-02 -1.61606092e-02 -7.22035095e-02 1.41449114e-02
      -4.81421724e-02 2.30061822e-02 2.06259713e-02 -7.25279469e-03
      -3.59733142e-02 2.96909418e-02 -3.82191092e-02 -5.73624000e-02
      1.71779618e-02 -2.67096777e-02 1.42849805e-02 -1.18486565e-02
      -1.87059827e-02 -5.22836223e-02 -3.54102887e-02 4.23704907e-02
      7.34399185e-02 -3.06235570e-02 -3.60222831e-02 -5.17764054e-02
      -2.85641588e-02 6.35113493e-02 9.65194404e-02 -1.18752457e-01
      4.45889458e-02 1.49540454e-02 -4.70622294e-02 4.58229929e-02
      -3.09740882e-02 -6.12474382e-02 -8.40354711e-02 -2.30631661e-02
      9.67827439e-03 2.52235197e-02 3.66162732e-02 -7.02637190e-04
      -3.40883359e-02 9.97138303e-03 -1.84899513e-02 -2.25613434e-02
      -2.17884947e-02 -7.52061903e-02 -1.02714309e-03 4.61386926e-02
      6.93612918e-02 1.90570261e-02 -1.71120111e-02 3.57403755e-02
      3.12441662e-02 1.62678994e-02 3.81227210e-02 2.14891136e-03
      -1.79722495e-02 -1.31698931e-02 4.44386117e-02 -8.81224349e-02
      -1.37579581e-02 1.67010874e-02 1.74257613e-04 7.36922920e-02
      -7.43261585e-03 -1.07890368e-01 1.47436978e-03 -1.09616622e-01
      -8.23476017e-02 -2.37911697e-02 1.50706561e-04 5.28709292e-02
      -1.44909713e-02 -2.63651740e-02 -4.87199724e-02 7.09097181e-03
      8.46002623e-03 -7.97339901e-02 6.39157072e-02 -2.08734255e-02
      -8.08819607e-02 5.43496124e-02 -1.19035594e-01 -3.19647007e-02
      -3.03944256e-02 2.45886259e-02 -4.85580526e-02 -5.03336871e-03
      -1.49215218e-02 -7.41517916e-02 2.33794991e-02 1.11760311e-02
      2.86928248e-02 5.64964004e-02 -6.59352168e-02 -1.15874009e-02
      1.48998275e-02 4.75262403e-02 -3.98572683e-02 -3.10386419e-02
      5.09262495e-02 -7.27109052e-03 -2.87295412e-02 -1.19487736e-02
      -6.35230169e-02 -1.82066746e-02 3.38023193e-02 4.84648626e-03
      -6.62290603e-02</_>
    <_>
      -1.62573278e-01 -2.02076390e-01 -2.12610900e-01 -1.81682676e-01
      -6.45160722e-03 1.02887869e-01 1.36422083e-01 1.54578090e-01
      -1.80921033e-02 1.15423009e-01 -5.13530746e-02 3.75902563e-01
      1.85206801e-01 -2.24876419e-01 7.27876462e-03 -1.21523380e-01
      -6.63628243e-03 1.35191098e-01 3.13250646e-02 -1.62438378e-02
      -3.96854430e-02 -1.03235794e-02 2.09352821e-02 1.35111794e-01
      6.59363195e-02 2.23887656e-02 -1.46957651e-01 2.67338865e-02
      5.71941864e-03 3.33975418e-03 2.28252588e-03 4.25798520e-02
      2.60673054e-02 -6.06409423e-02 -6.46422878e-02 3.29011679e-02
      1.76568609e-02 5.78952506e-02 3.13191116e-02 -4.74105850e-02
      -5.06785400e-02 -5.24999648e-02 -2.95040328e-02 -3.95881236e-02
      -1.28030945e-02 -9.20149386e-02 -7.92767555e-02 1.35737634e-03
      -1.29481956e-01 -8.53777751e-02 -6.49086386e-02 4.80802655e-02
      5.81716038e-02 -8.09109882e-02 -6.59680739e-02 -3.57319862e-02
      -5.15021570e-03 2.31490694e-02 1.96495205e-02 -8.38608071e-02
      5.41750826e-02 1.76694971e-02 -5.91932088e-02 7.26809427e-02
      -3.57186049e-02 -4.42122966e-02 -9.14817005e-02 -3.43584865e-02
      -4.68059219e-02 7.98564851e-02 2.42595021e-02 -2.03245021e-02
      -2.51561645e-02 1.02535319e-02 3.39797474e-02 -1.62375346e-02
      -4.28522564e-02 -6.37004375e-02 7.37130223e-03 3.15531716e-02
      3.53397056e-02 9.34648141e-03 2.93154176e-02 7.54450858e-02
      1.56876780e-02 6.76026195e-02 1.09016057e-02 2.63787471e-02
      -3.82525916e-03 -9.06875432e-02 -1.12279328e-02 -1.31335288e-01
      3.50226574e-02 -1.05534373e-02 -6.61343038e-02 7.28303269e-02
      2.65510450e-03 -6.87604547e-02 -8.73840693e-03 -7.39738196e-02
      1.18083684e-02 5.42672686e-02 7.61537179e-02 -7.42077902e-02
      -2.91174576e-02 -3.39162424e-02 -4.06870842e-02 4.74629290e-02
      2.48873103e-02 -1.14875562e-01 3.65680270e-02 3.44559215e-02
      -8.94194096e-02 -2.50073001e-02 -7.58748278e-02 -3.61362584e-02
      4.92791794e-02 -7.10886205e-03 -8.56020749e-02 1.27233192e-02
      -2.78774719e-03 -5.05378693e-02 -4.58874367e-02 -2.31790505e-02
      -1.78629323e-03 5.18971793e-02 -5.16009778e-02 2.50027832e-02
      1.57209858e-02 3.16935293e-02 -1.76854078e-02 -5.45309409e-02
      1.04297109e-01 -7.48879509e-03 4.10781428e-02 -6.46396205e-02
      -1.28374156e-02 1.96340717e-02 1.46824103e-02 1.17010353e-02
      -7.09753716e-03</_>
    <_>
      -1.57320932e-01 -1.37308344e-01 -3.20465028e-01 -1.31757066e-01
      7.00971857e-02 8.15207139e-02 2.43770212e-01 5.86612150e-02
      -2.16441110e-01 1.40817434e-01 2.12889612e-02 4.36678141e-01
      5.37051372e-02 -2.89728045e-01 7.08894730e-02 -6.61554039e-02
      1.49134353e-01 1.71993583e-01 9.25632939e-02 -4.60031182e-02
